<?xml version="1.0" encoding="ISO-8859-1"?>
<smile version="1.0" id="Network1" numsamples="1000" discsamples="10000">
	<nodes>
		<cpt id="Failures">
			<state id="f0" />
			<state id="f1" />
			<state id="f2" />
			<state id="f3" />
			<probabilities>0.845917052818841 0.1078579703511596 0.02465333642192023 0.02157164040807918</probabilities>
		</cpt>
		<cpt id="Age">
			<state id="a15" />
			<state id="a16" />
			<state id="a17" />
			<state id="a18" />
			<state id="a19_22" />
			<parents>Failures</parents>
			<probabilities>0.1967213114754149 0.2932604735883369 0.2786885245901624 0.2040072859744974 0.02732240437158824 0.05714285711057237 0.1714285717428361 0.2714285711502936 0.2714285716161882 0.2285714283801097 2.665737018001006e-007 0.1874999348089085 0.06250014471255112 0.3749999706738915 0.374999683230947 5.231946008524259e-007 0.07142909111693191 0.4285705446375809 0.2142859409886993 0.2857139000621871</probabilities>
		</cpt>
		<cpt id="Alcohol">
			<state id="none" />
			<state id="little" />
			<state id="lots" />
			<probabilities>0.3713404724675196 0.4437595246771425 0.1849000028553378</probabilities>
		</cpt>
		<cpt id="Sex">
			<state id="M" />
			<state id="F" />
			<probabilities>0.4098613251155619 0.5901386748844381</probabilities>
		</cpt>
		<cpt id="RomanticRelationship">
			<state id="yes" />
			<state id="no" />
			<parents>Alcohol Age Sex</parents>
			<probabilities>0.1551081733563224 0.8448918266436776 0.266678209365359 0.7333217906346411 0.190667264197188 0.809332735802812 0.4254575655712091 0.5745424344287908 0.3333500317162048 0.6666499682837953 0.4317303090750841 0.5682696909249159 0.1453881154713213 0.8546118845286786 0.5123803528045823 0.4876196471954178 0.5090135003814181 0.4909864996185818 0.6029889549300816 0.3970110450699183 0.0553441888070037 0.9446558111929964 0.3335728247218683 0.6664271752781317 0.3097723498474935 0.6902276501525064 0.2692721954623962 0.7307278045376038 0.3454506815037681 0.6545493184962319 0.3967627606943724 0.6032372393056276 0.5561395255639727 0.4438604744360272 0.5553973398107157 0.4446026601892843 0.6022485955347537 0.3977514044652462 0.504464179041224 0.495535820958776 0.3664984205056446 0.6335015794943555 0.6740302150018915 0.3259697849981085 0.2726540286110716 0.7273459713889283 0.3452667497670239 0.6547332502329761 0.3927306934344074 0.6072693065655925 0.3275736919299169 0.6724263080700831 0.1812452521715245 0.8187547478284755 0.4246678100918067 0.5753321899081932 0.5000339715811387 0.4999660284188613 0.49117337387367 0.5088266261263299</probabilities>
		</cpt>
		<cpt id="Studytime">
			<state id="st1" />
			<state id="st2" />
			<state id="st3" />
			<state id="st4" />
			<parents>Alcohol</parents>
			<probabilities>0.2323048223394371 0.4978896735776074 0.187310352342031 0.08249515174092459 0.3192271278256319 0.486266767635316 0.1632810316044246 0.03122507293462748 0.5316997501496693 0.3758220615493445 0.04213636912403641 0.05034181917694992</probabilities>
		</cpt>
		<decision id="AbsenceDecision">
			<state id="none" />
			<state id="few" />
			<state id="many" />
			<state id="lots" />
			<state id="unknown" />
		</decision>
		<cpt id="Absences">
			<state id="none" />
			<state id="few" />
			<state id="many" />
			<state id="lots" />
			<parents>AbsenceDecision Alcohol</parents>
			<probabilities>1 0 0 0 1 0 0 0 1 0 0 0 0 1 0 0 0 1 0 0 0 1 0 0 0 0 1 0 0 0 1 0 0 0 1 0 0 0 0 1 0 0 0 1 0 0 0 1 0.3608590578875276 0.3819251287579277 0.1899138206700878 0.06730199268445688 0.3430555555614676 0.3516414141427253 0.1578282828232576 0.1474747474725495 0.3321969714306969 0.1715909108104615 0.2602272714157485 0.2359848463430932</probabilities>
		</cpt>
		<cpt id="G1">
			<state id="Poor" />
			<state id="Sufficient" />
			<state id="Good" />
			<state id="VeryGood" />
			<state id="Excellent" />
			<parents>Failures Age RomanticRelationship Studytime Sex Absences Alcohol</parents>
			<probabilities>0.1059252392766037 0.7206572824315319 0.08494111410291078 0.05048835556441739 0.03798800862453619 0.008827103273050307 0.9767214402026277 0.007078426175242566 0.00420736296370145 0.003165667385378016 0.1059252392766037 0.7206572824315319 0.08494111410291078 0.05048835556441739 0.03798800862453619 0.2307782788949785 0.5081387539826961 0.166602410639938 0.05790318737844883 0.03657736910393868 0.2307782788949785 0.5081387539826961 0.166602410639938 0.05790318737844883 0.03657736910393868 0.2307782788949785 0.5081387539826961 0.166602410639938 0.05790318737844883 0.03657736910393868 0.08880607088567559 0.7141862101260811 0.04498632095323218 0.0877629517500351 0.06425844628497601 0.08880607088567559 0.7141862101260811 0.04498632095323218 0.0877629517500351 0.06425844628497601 0.007400505907139632 0.9761821841771734 0.003748860079436015 0.007313579312502924 0.005354870523748001 0.2694370814629242 0.2834686313886213 0.1687581960204107 0.1626199865824013 0.1157161045456426 0.2694370814629242 0.2834686313886213 0.1687581960204107 0.1626199865824013 0.1157161045456426 0.2694370814629242 0.2834686313886213 0.1687581960204107 0.1626199865824013 0.1157161045456426 0.02730146746416734 0.9714781746339867 0.0008507478531821069 0.0003052048011933234 6.440524747045021e-005 0.9439681341308338 0.05481150796732011 0.0008507478531821068 0.0003052048011933233 6.440524747045021e-005 0.02730146746416734 0.9714781746339867 0.0008507478531821069 0.0003052048011933234 6.440524747045021e-005 0.2419012023899495 0.5238698566772683 0.1633331450774195 0.0585678936105226 0.01232790224484032 0.2419012023899495 0.5238698566772683 0.1633331450774195 0.0585678936105226 0.01232790224484032 0.2419012023899495 0.5238698566772683 0.1633331450774195 0.0585678936105226 0.01232790224484032 0.05000000157833003 0.7999999961834925 0.05000000083392654 0.05000000169474825 0.04999999970950273 0.00416666679819417 0.983333333015291 0.004166666736160546 0.004166666807895688 0.004166666642458561 0.05000000157833003 0.7999999961834925 0.05000000083392654 0.05000000169474825 0.04999999970950273 0.1999984786688482 0.2000053138193912 0.1999967082601454 0.1999970818057374 0.2000024174458778 0.1999984786688482 0.2000053138193912 0.1999967082601454 0.1999970818057374 0.2000024174458778 0.1999984786688482 0.2000053138193912 0.1999967082601454 0.1999970818057374 0.2000024174458778 0.006523126846571793 0.9752779481282114 0.007419735742473118 0.001737708158928262 0.009041481123815306 0.07827752215886152 0.7033353775385383 0.08903682890967742 0.02085249790713914 0.1084977734857837 0.07827752215886152 0.7033353775385383 0.08903682890967742 0.02085249790713914 0.1084977734857837 0.000579403210197663 0.9985011332095964 0.0006646093892145245 0.0001670033428577126 8.785084813367686e-005 0.03128777335067381 0.9190611933182069 0.03588890701758433 0.009018180514316484 0.004743945799218552 0.03128777335067381 0.9190611933182069 0.03588890701758433 0.009018180514316484 0.004743945799218552 0.7461858152387228 0.1078908944384463 0.03330812786782664 0.06744093884422116 0.04517422361078295 0.7461858152387228 0.1078908944384463 0.03330812786782664 0.06744093884422116 0.04517422361078295 0.9788488179365602 0.008990907869870527 0.002775677322318888 0.005620078237018431 0.003764518634231913 0.1670509118937765 0.2327354325032275 0.226608252970517 0.1792719686645591 0.19433343396792 0.1670509118937765 0.2327354325032275 0.226608252970517 0.1792719686645591 0.19433343396792 0.1670509118937765 0.2327354325032275 0.226608252970517 0.1792719686645591 0.19433343396792 0.0022411342420693 0.9955867023523062 0.001512530161290145 0.0005432739689116189 0.0001163592754227034 0.0268936109048316 0.947040428227675 0.01815036193548175 0.00651928762693943 0.001396311305072441 0.0022411342420693 0.9955867023523062 0.001512530161290145 0.0005432739689116189 0.0001163592754227034 0.0001792886678575924 0.9996468052199898 0.0001211573502832922 4.353686331409107e-005 9.211898555379614e-006 0.0008067990053591656 0.9984106234899534 0.0005452080762748145 0.0001959158849134098 4.145354349920826e-005 0.0008067990053591656 0.9984106234899534 0.0005452080762748145 0.0001959158849134098 4.145354349920826e-005 0.05000000548385327 0.7999999864946672 0.05000000441558531 0.05000000221207924 0.0500000013938151 0.05000000548385327 0.7999999864946672 0.05000000441558531 0.05000000221207924 0.0500000013938151 0.00416666712365444 0.9833333322078889 0.004166667034632109 0.004166666851006604 0.004166666782817925 0.7999636876093206 0.05000847080699135 0.05001360809310335 0.05000933814370791 0.05000489534687672 0.9833303073007766 0.004167372567249279 0.004167800674425279 0.004167444845308992 0.004167074612239726 0.7999636876093206 0.05000847080699135 0.05001360809310335 0.05000933814370791 0.05000489534687672 0.007162717412771333 0.008309241959348585 0.9786502798556906 0.003631002632796957 0.002246758139392542 0.08595260895325599 0.09971090351218299 0.743803358268287 0.04357203159356347 0.02696109767271049 0.08595260895325599 0.09971090351218299 0.743803358268287 0.04357203159356347 0.02696109767271049 0.2378723255370507 0.5166144322779049 0.1626343524714263 0.06436719700817532 0.01851169270544283 0.2378723255370507 0.5166144322779049 0.1626343524714263 0.06436719700817532 0.01851169270544283 0.2378723255370507 0.5166144322779049 0.1626343524714263 0.06436719700817532 0.01851169270544283 0.2120297222802449 0.1918954571088319 0.2131415350927285 0.2063807502281686 0.1765525352900261 0.2120297222802449 0.1918954571088319 0.2131415350927285 0.2063807502281686 0.1765525352900261 0.2120297222802449 0.1918954571088319 0.2131415350927285 0.2063807502281686 0.1765525352900261 0.209605967871708 0.1755838422983365 0.1653451994892619 0.2779046905991489 0.1715602997415449 0.209605967871708 0.1755838422983365 0.1653451994892619 0.2779046905991489 0.1715602997415449 0.209605967871708 0.1755838422983365 0.1653451994892619 0.2779046905991489 0.1715602997415449 0.002239935885981612 0.0418877674629894 0.955215990853281 0.0005421530864286937 0.0001141527113190496 0.002239935885981613 0.9585544341296559 0.03854932418661457 0.0005421530864286939 0.0001141527113190496 0.02687923063177936 0.5026532095558729 0.4625918902393749 0.006505837037144326 0.001369832535828595 0.002239919808428252 0.9955914760101462 0.001512305802395676 0.0005421537880821141 0.0001141445909477 0.002239919808428252 0.9955914760101462 0.001512305802395676 0.0005421537880821141 0.0001141445909477 0.02687903770113903 0.9470977121217552 0.01814766962874811 0.006505845456985369 0.0013697350913724 0.1999999997654725 0.1999999999856291 0.2000000001669281 0.2000000001428552 0.199999999939115 0.1999999997654725 0.1999999999856291 0.2000000001669281 0.2000000001428552 0.199999999939115 0.1999999997654725 0.1999999999856291 0.2000000001669281 0.2000000001428552 0.199999999939115 0.1999998682401057 0.1999999584881519 0.2000000155241748 0.199999867581433 0.2000002901661346 0.1999998682401057 0.1999999584881519 0.2000000155241748 0.199999867581433 0.2000002901661346 0.1999998682401057 0.1999999584881519 0.2000000155241748 0.199999867581433 0.2000002901661346 0.06476756826617677 0.8602508324666838 0.04299700423045484 0.01764727052271685 0.01433732451396787 0.06476756826617677 0.8602508324666838 0.04299700423045484 0.01764727052271685 0.01433732451396787 0.005397297355514731 0.9883542360388902 0.003583083685871236 0.00147060587689307 0.001194777042830656 0.2419045954960084 0.5231930399725879 0.1635787410970364 0.05854640366315217 0.01277721977121494 0.2419045954960084 0.5231930399725879 0.1635787410970364 0.05854640366315217 0.01277721977121494 0.2419045954960084 0.5231930399725879 0.1635787410970364 0.05854640366315217 0.01277721977121494 0.050360407749348 0.7950671792344863 0.05093529254541188 0.05160658200126798 0.05203053846948579 0.050360407749348 0.7950671792344863 0.05093529254541188 0.05160658200126798 0.05203053846948579 0.004196700645778999 0.9829222649362069 0.004244607712117656 0.004300548500105664 0.004335878205790481 0.2022387312376104 0.1917842696309494 0.2104267350846735 0.1947283094461091 0.2008219546006575 0.2022387312376104 0.1917842696309494 0.2104267350846735 0.1947283094461091 0.2008219546006575 0.2022387312376104 0.1917842696309494 0.2104267350846735 0.1947283094461091 0.2008219546006575 0.2419112457735197 0.5238828245364617 0.163327812541828 0.05855148518519287 0.01232663196299777 0.2419112457735197 0.5238828245364617 0.163327812541828 0.05855148518519287 0.01232663196299777 0.2419112457735197 0.5238828245364617 0.163327812541828 0.05855148518519287 0.01232663196299777 0.2419112432480741 0.5238828193946174 0.1633278042342848 0.05855148956013665 0.01232664356288694 0.2419112432480741 0.5238828193946174 0.1633278042342848 0.05855148956013665 0.01232664356288694 0.2419112432480741 0.5238828193946174 0.1633278042342848 0.05855148956013665 0.01232664356288694 0.1999999999964519 0.199999999986115 0.200000000005478 0.2000000000047316 0.2000000000072236 0.1999999999964519 0.199999999986115 0.200000000005478 0.2000000000047316 0.2000000000072236 0.1999999999964519 0.199999999986115 0.200000000005478 0.2000000000047316 0.2000000000072236 0.2000000049432777 0.1999999951941771 0.2000000018670564 0.1999999990148735 0.1999999989806152 0.2000000049432777 0.1999999951941771 0.2000000018670564 0.1999999990148735 0.1999999989806152 0.2000000049432777 0.1999999951941771 0.2000000018670564 0.1999999990148735 0.1999999989806152 0.4938594072628903 0.5059864473537854 0.0001005853583181672 4.627478020233993e-005 7.285244803722523e-006 0.003118666522149649 0.9967271880945261 0.0001005853583181672 4.627478020233993e-005 7.285244803722523e-006 0.003118666522149649 0.9967271880945261 0.0001005853583181672 4.627478020233993e-005 7.285244803722523e-006 0.004627185515947299 0.9930307170936632 0.002323598921303893 1.404583668853112e-005 4.452632397215274e-006 0.3328116751116322 0.3351478670191113 0.3320342146359401 4.740469882379254e-006 1.502763434060156e-006 0.3328116751116321 0.6663978670191112 0.000784214635940064 4.740469882379253e-006 1.502763434060155e-006 0.05100810232531522 0.7962244711553341 0.05195771548226086 0.04960799124867136 0.05120171978841841 0.004250675193776268 0.983018705929611 0.004329809623521738 0.004133999270722614 0.004266809982368201 0.05100810232531522 0.7962244711553341 0.05195771548226086 0.04960799124867136 0.05120171978841841 0.001056966576022563 0.05304080585765378 0.001190656783275979 0.001026450834190851 0.9436851199488567 0.001056966576022563 0.9697074725243204 0.001190656783275979 0.001026450834190852 0.02701845328219018 0.001056966576022563 0.9697074725243204 0.001190656783275979 0.001026450834190852 0.02701845328219018 0.4953555912214999 0.009256389192740426 0.4953141786177355 6.454567890795509e-005 9.295289116460686e-006 0.02076682716341561 0.9583204180339986 0.02058047044647593 0.0002904555550857979 4.182880102407309e-005 0.02076682716341561 0.9583204180339986 0.02058047044647593 0.0002904555550857979 4.182880102407309e-005 0.0003076757184426805 0.9993677052969661 0.0002174791980734213 6.790464838532492e-005 3.923513813252382e-005 0.001384540732992063 0.9971546738363473 0.0009786563913303961 0.0003055709177339622 0.0001765581215963572 0.01661448879590476 0.9658560860361667 0.01174387669596475 0.003666851012807546 0.002118697459156287 0.0002314837378700702 0.496759259876455 0.5025462883983294 0.0002314851427369178 0.0002314828446086929 0.001041676820415316 0.02708333611071395 0.9697916311258155 0.00104168314231613 0.001041672800739118 0.01250012184498379 0.3250000333285674 0.6374995735097858 0.01250019770779356 0.01250007360886942 0.2054550559015188 0.1962725932640843 0.1969124655726229 0.2021122599771194 0.1992476252846547 0.2054550559015188 0.1962725932640843 0.1969124655726229 0.2021122599771194 0.1992476252846547 0.2054550559015188 0.1962725932640843 0.1969124655726229 0.2021122599771194 0.1992476252846547 0.1111050787944913 0.4444751185661702 0.3333146638163303 0.1111050270391753 1.117838329496791e-007 0.000487083560637655 0.9975822007121002 0.001441568686354397 0.0004853044716498807 3.842569257645219e-006 0.006494447475168732 0.9677626761613387 0.01922091581805863 0.006470726288665075 5.123425676860291e-005 0.0001819771524159688 0.00927034722401073 0.4953025892363837 0.4952304331104685 1.465327672108244e-005 0.0001819771524159687 0.9907518287054922 0.004561848495642951 0.004489692369727785 1.465327672108243e-005 0.009826766230462313 0.5005987500965794 0.2463398187647194 0.2424433879653004 0.0007912769429384516 0.03863476458078319 0.001990820142356348 0.9553461031722769 0.001938683922970935 0.002089628181612526 0.9553014312474498 0.001990820142356348 0.03867943650561033 0.001938683922970935 0.002089628181612526 0.4636171749693984 0.02388984170827617 0.4641532380673239 0.02326420707565122 0.02507553817935031 0.7878570403522138 0.05210515258940526 0.04885594461978305 0.05636611236960814 0.05481575006898975 0.9823214200293512 0.004342096049117105 0.004071328718315254 0.004697176030800679 0.004567979172415813 0.7878570403522138 0.05210515258940526 0.04885594461978305 0.05636611236960814 0.05481575006898975 0.002379350698064223 0.009256280455791374 0.4953208786583956 0.4930345933697969 8.896817951818169e-006 0.0001699536212903016 0.7996029618314983 0.2000626024438536 0.0001638466163611571 6.354869965584404e-007 0.9273737448079556 0.04165326205106118 0.02061062062944707 0.0103223368307529 4.003568078318176e-005 7.108082229563499e-005 0.9986639880282991 0.001240612672439644 1.713645057941525e-005 7.182026386003675e-006 0.0002106098438389185 0.505300705269035 0.494416630140562 5.077466838345259e-005 2.128007818075163e-005 0.0113729315673016 0.7862380845278883 0.1984980275903431 0.00274183209270644 0.001149124221760588 0.001851839250494586 0.992592267647012 0.001851898220509994 0.001851968437596033 0.001852026444387443 0.001851839250494586 0.992592267647012 0.001851898220509994 0.001851968437596033 0.001852026444387443 0.02222207100593503 0.9111072117641434 0.02222277864611992 0.0222236212511524 0.02222431733264931 0.00443333723602597 0.9820172108216563 0.004928924853315053 0.004066391413097341 0.004554135675905301 0.05320004683231164 0.7842065298598759 0.05914709823978065 0.0487966969571681 0.05464962811086362 0.05320004683231164 0.7842065298598759 0.05914709823978065 0.0487966969571681 0.05464962811086362 0.00507687232275947 0.01084608657833307 0.98248510222753 0.001260878580144902 0.0003310602912325683 0.06092246787311362 0.1301530389399968 0.7898212267303599 0.01513054296173882 0.003972723494790819 0.06092246787311362 0.1301530389399968 0.7898212267303599 0.01513054296173882 0.003972723494790819 0.06048504796830386 0.8809237954243168 0.0408480635317789 0.01465359758539059 0.003089495490210133 0.005040420664025321 0.9900769829520264 0.003404005294314908 0.001221133132115883 0.0002574579575175111 0.06048504796830386 0.8809237954243168 0.0408480635317789 0.01465359758539059 0.003089495490210133 0.1998993522259818 0.1999532806963885 0.20042163672947 0.1996102755728084 0.2001154547753514 0.1998993522259818 0.1999532806963885 0.20042163672947 0.1996102755728084 0.2001154547753514 0.1998993522259818 0.1999532806963885 0.20042163672947 0.1996102755728084 0.2001154547753514 0.2004701339549295 0.2000305615800183 0.1990346797488594 0.199949534926228 0.2005150897899648 0.2004701339549295 0.2000305615800183 0.1990346797488594 0.199949534926228 0.2005150897899648 0.2004701339549295 0.2000305615800183 0.1990346797488594 0.199949534926228 0.2005150897899648 0.0005004221088597689 0.9990087912022957 0.0003373396582856807 0.0001220628234787359 3.138420708031192e-005 0.02702279387842752 0.9464747249239571 0.01821634154742676 0.00659139246785174 0.001694747182336844 0.02702279387842752 0.9464747249239571 0.01821634154742676 0.00659139246785174 0.001694747182336844 4.295751305008966e-005 0.9974858019122165 0.002458187645265847 1.05105656273001e-005 2.542363840282083e-006 0.0001272815201484138 0.01106904270286365 0.9887650004304174 3.114241667348177e-005 7.532929897132097e-006 0.006873202088014345 0.597728305954637 0.3933100232425355 0.001681690500368016 0.0004067782144451332 0.1999999843408235 0.2000000132206874 0.1999999833115085 0.2000000321463314 0.1999999869806492 0.1999999843408235 0.2000000132206874 0.1999999833115085 0.2000000321463314 0.1999999869806492 0.1999999843408235 0.2000000132206874 0.1999999833115085 0.2000000321463314 0.1999999869806492 0.1997537870533176 0.2007393845061076 0.1994692326700438 0.2002190737479429 0.1998185220225881 0.1997537870533176 0.2007393845061076 0.1994692326700438 0.2002190737479429 0.1998185220225881 0.1997537870533176 0.2007393845061076 0.1994692326700438 0.2002190737479429 0.1998185220225881 0.0004979942231528583 0.9990185332655291 0.0003361349612545831 0.0001211337208291881 2.620382923415099e-005 0.02689168805025435 0.947000796338578 0.01815128790774749 0.006541220924776161 0.001415006778644154 0.02689168805025435 0.947000796338578 0.01815128790774749 0.006541220924776161 0.001415006778644154 0.005039828050876903 0.990080736336864 0.003402697684511119 0.001219864969896525 0.0002568729578514111 0.06047793661052284 0.8809688360423686 0.04083237221413343 0.0146383796387583 0.003082475494216934 0.06047793661052284 0.8809688360423686 0.04083237221413343 0.0146383796387583 0.003082475494216934 0.9437502462713636 0.02708263085615726 0.02708287965425967 0.001041830914914475 0.001042412303304815 0.006018573245488247 0.4967591031532202 0.4967591584416874 0.0002315179810921056 0.0002316471785121811 0.3250029552563653 0.3249915702738871 0.3249945558511161 0.0125019709789737 0.01250894763965778 0.2000468681234729 0.2000550278104292 0.1999725031413703 0.1999216667109775 0.20000393421375 0.2000468681234729 0.2000550278104292 0.1999725031413703 0.1999216667109775 0.20000393421375 0.2000468681234729 0.2000550278104292 0.1999725031413703 0.1999216667109775 0.20000393421375 0.2419123240187261 0.5238581531436241 0.1633129253269902 0.05855961234843994 0.01235698516221974 0.2419123240187261 0.5238581531436241 0.1633129253269902 0.05855961234843994 0.01235698516221974 0.2419123240187261 0.5238581531436241 0.1633129253269902 0.05855961234843994 0.01235698516221974 0.0004978803118700979 0.9990199659407253 0.0003361494128496874 0.0001205011504044184 2.55031841505454e-005 0.02688553684098529 0.9470781607991636 0.01815206829388312 0.006507062121838594 0.001377171944129452 0.02688553684098529 0.9470781607991636 0.01815206829388312 0.006507062121838594 0.001377171944129452 0.05000000006752756 0.04999999996613685 0.7999999994201795 0.04999999992220955 0.05000000062394658 0.004166666672293963 0.004166666663844737 0.9833333332850149 0.004166666660184129 0.004166666718662214 0.05000000006752756 0.04999999996613685 0.7999999994201795 0.04999999992220955 0.05000000062394658 0.004167553049982624 0.9833303290389492 0.004167241533381169 0.004167295154929267 0.004167581222757673 0.0500106365997915 0.7999639484673913 0.05000689840057403 0.05000754185915121 0.05001097467309207 0.0500106365997915 0.7999639484673913 0.05000689840057403 0.05000754185915121 0.05001097467309207 0.09027071379085982 0.8095207233460517 0.06279675200130862 0.01286070390217775 0.02455110695960203 0.007522559482571653 0.9841267269455043 0.005233062666775719 0.001071725325181479 0.002045925579966836 0.09027071379085982 0.8095207233460517 0.06279675200130862 0.01286070390217775 0.02455110695960203 0.2417778389434889 0.5165810437941944 0.1624375064512454 0.06226792635808257 0.01693568445298867 0.2417778389434889 0.5165810437941944 0.1624375064512454 0.06226792635808257 0.01693568445298867 0.2417778389434889 0.5165810437941944 0.1624375064512454 0.06226792635808257 0.01693568445298867 0.460238504238892 0.4533984833578971 0.02388823708694709 0.03041082902575476 0.0320639462905092 0.460238504238892 0.4533984833578971 0.02388823708694709 0.03041082902575476 0.0320639462905092 0.4992636760044241 0.4991370089510723 0.0004423747608693908 0.0005631635004769402 0.0005937767831575779 0.7410882804093851 0.08708129247935473 0.05348822300787108 0.04273007944188829 0.07561212466150082 0.9784240233674488 0.007256774373279561 0.004457351917322589 0.003560839953490691 0.006301010388458401 0.7410882804093851 0.08708129247935473 0.05348822300787108 0.04273007944188829 0.07561212466150082 0.0001247446487882868 0.00747073128952193 0.9887668653369817 0.003630880276310772 6.778448397411923e-006 0.0005613509195472905 0.03361829080284869 0.03278422734975052 0.9330056279100651 3.050301778835365e-005 0.0001247446487882868 0.9889522127710034 0.007285383855500115 0.003630880276310771 6.778448397411922e-006 0.6655603606076341 0.3328808037784098 0.00154074834507737 1.486727573955073e-005 3.21999313890896e-006 0.04080480810179109 0.02174405037879786 0.9372099779343649 0.0001982303431940098 4.293324185211947e-005 0.489657697221493 0.2609286045455743 0.2465197352123792 0.002378764118328117 0.0005151989022254337 0.0499999989553512 0.7999999948714303 0.05000000546431593 0.04999999928156741 0.05000000142733524 0.0041666665796126 0.9833333329059524 0.004166667122026327 0.004166666606797284 0.004166666785611269 0.0499999989553512 0.7999999948714303 0.05000000546431593 0.04999999928156741 0.05000000142733524 0.04996998000627999 0.7998557802187641 0.05000504034001423 0.05010431335727838 0.05006488607766332 0.004164165000523332 0.9833213150182303 0.004167086695001185 0.004175359446439865 0.004172073839805276 0.04996998000627999 0.7998557802187641 0.05000504034001423 0.05010431335727838 0.05006488607766332 0.003119415794739522 0.5026108819794812 0.0005096632628861068 0.4937053638786586 5.467508423452418e-005 0.001052802830724589 0.9977561726680748 0.0001720113512240611 0.001000560309047292 1.845284092915192e-005 0.9307040377429944 0.05341563557433207 0.002293484682987481 0.01334080412063057 0.0002460378790553589 0.4681051913426735 0.498007219816147 0.02043470898394814 0.008864259995600065 0.004588619861631389 0.9556754326118895 0.04150060165134559 0.001702892415329012 0.0007386883329666722 0.0003823849884692824 0.0390087659452228 0.9581672683180124 0.001702892415329012 0.0007386883329666722 0.0003823849884692824 0.1549787513729152 0.2259443819995076 0.2435644213243915 0.1665026140475058 0.2090098312556797 0.1549787513729152 0.2259443819995076 0.2435644213243915 0.1665026140475058 0.2090098312556797 0.1549787513729152 0.2259443819995076 0.2435644213243915 0.1665026140475058 0.2090098312556797 0.171843202661269 0.1723810982983957 0.1581217356821928 0.3629298819251869 0.1347240814329556 0.171843202661269 0.1723810982983957 0.1581217356821928 0.3629298819251869 0.1347240814329556 0.171843202661269 0.1723810982983957 0.1581217356821928 0.3629298819251869 0.1347240814329556 8.760264675119188e-007 0.4285594640924874 0.2857630260058504 0.2856765621183626 7.175683198394601e-008 1.261478113217164e-005 0.3337562829318188 0.6649875744842464 0.001242494504422203 1.033298380568823e-006 0.002018364981147461 0.4010052690909939 0.3980119174794151 0.1987991207075524 0.0001653277408910116 0.3337221021544129 0.3325560811361232 0.3337087446637212 1.068557253238591e-005 2.386473210300686e-006 0.4980654878649272 0.003869870032957662 0.4980259101147294 3.166095565151379e-005 7.071031734224252e-006 0.3955363447060676 0.2089729817797137 0.3933991461953888 0.001709691605181745 0.0003818357136481095 0.1999999906526394 0.199999988738015 0.2000000441197423 0.1999999994939837 0.1999999769956197 0.1999999906526394 0.199999988738015 0.2000000441197423 0.1999999994939837 0.1999999769956197 0.1999999906526394 0.199999988738015 0.2000000441197423 0.1999999994939837 0.1999999769956197 0.05018108607333448 0.7995275865824455 0.05019626319069424 0.04996111435904944 0.05013394979447636 0.004181757172777873 0.9832939655485371 0.004183021932557852 0.004163426196587453 0.004177829149539696 0.05018108607333448 0.7995275865824455 0.05019626319069424 0.04996111435904944 0.05013394979447636 0.002358958343328196 0.04068928565764242 0.001568820980334347 0.953792544422453 0.001590390596242032 0.002358958343328196 0.957355952324309 0.001568820980334347 0.03712587775578634 0.001590390596242032 0.02830750011993835 0.4882714278917091 0.01882585176401216 0.4455105330694361 0.01908468715490438 0.002248449669621681 0.9955253061002877 0.001523406557167772 0.0005665146924451183 0.0001363229804776405 0.002248449669621681 0.9955253061002877 0.001523406557167772 0.0005665146924451183 0.0001363229804776405 0.02698139603546017 0.9463036732034535 0.01828087868601327 0.006798176309341421 0.001635875765731686 0.1922404322176404 0.1935427991057252 0.2038951390070086 0.2169418719901989 0.193379757679427 0.1922404322176404 0.1935427991057252 0.2038951390070086 0.2169418719901989 0.193379757679427 0.1922404322176404 0.1935427991057252 0.2038951390070086 0.2169418719901989 0.193379757679427 0.2209814542540972 0.1871988380371314 0.2160929497454221 0.1895285375442163 0.186198220419133 0.2209814542540972 0.1871988380371314 0.2160929497454221 0.1895285375442163 0.186198220419133 0.2209814542540972 0.1871988380371314 0.2160929497454221 0.1895285375442163 0.186198220419133 0.2419099710840021 0.5238647158362927 0.1633359745274028 0.05855050990301031 0.01233882864929183 0.2419099710840021 0.5238647158362927 0.1633359745274028 0.05855050990301031 0.01233882864929183 0.2419099710840021 0.5238647158362927 0.1633359745274028 0.05855050990301031 0.01233882864929183 0.02080635089251721 0.04174615364553015 0.9372110226125901 0.0001953108431909769 4.116200617153678e-005 0.3328104763169388 0.6656309615234148 0.001540826695944258 1.464831323932328e-005 3.08715046286526e-006 0.2496762107102066 0.500953843746362 0.2465322713510812 0.002343730118291724 0.0004939440740584414 0.0004115226351399028 0.4993827160471523 0.000411522634133482 0.4993827160478346 0.000411522635739901 0.02222222229755475 0.4666666665462197 0.02222222224320803 0.4666666665830628 0.02222222232995465 0.02222222229755475 0.4666666665462197 0.02222222224320803 0.4666666665830628 0.02222222232995465 0.199991991615159 0.2000102302202087 0.1999914239545844 0.2000126122825906 0.1999937419274575 0.199991991615159 0.2000102302202087 0.1999914239545844 0.2000126122825906 0.1999937419274575 0.199991991615159 0.2000102302202087 0.1999914239545844 0.2000126122825906 0.1999937419274575 0.2415812813752128 0.5204698479760864 0.1633299314608976 0.05957984588779121 0.01503909330001194 0.2415812813752128 0.5204698479760864 0.1633299314608976 0.05957984588779121 0.01503909330001194 0.2415812813752128 0.5204698479760864 0.1633299314608976 0.05957984588779121 0.01503909330001194 0.2418894398056201 0.5238265926156164 0.1633480365902188 0.05857298324522282 0.01236294774332174 0.2418894398056201 0.5238265926156164 0.1633480365902188 0.05857298324522282 0.01236294774332174 0.2418894398056201 0.5238265926156164 0.1633480365902188 0.05857298324522282 0.01236294774332174 0.2008604546440793 0.1992106593537699 0.1997262306457538 0.1992244256216798 0.2009782297347173 0.2008604546440793 0.1992106593537699 0.1997262306457538 0.1992244256216798 0.2009782297347173 0.2008604546440793 0.1992106593537699 0.1997262306457538 0.1992244256216798 0.2009782297347173 0.2004535646716825 0.2010251420241893 0.200273756602539 0.1985519330102232 0.199695603691366 0.2004535646716825 0.2010251420241893 0.200273756602539 0.1985519330102232 0.199695603691366 0.2004535646716825 0.2010251420241893 0.200273756602539 0.1985519330102232 0.199695603691366 0.2419111962069382 0.5238825033114275 0.1633278678801538 0.05855161726612883 0.01232681533535158 0.2419111962069382 0.5238825033114275 0.1633278678801538 0.05855161726612883 0.01232681533535158 0.2419111962069382 0.5238825033114275 0.1633278678801538 0.05855161726612883 0.01232681533535158 0.002239919884171728 0.9955914965762387 0.001512299086975269 0.0005421455253357601 0.0001141389272785877 0.002239919884171728 0.9955914965762387 0.001512299086975269 0.0005421455253357601 0.0001141389272785877 0.02687903861006074 0.9470979589148639 0.01814758904370322 0.00650574630402912 0.001369667127343053 0.2000000000047263 0.2000000000009603 0.2000000000002244 0.1999999999986913 0.1999999999953977 0.2000000000047263 0.2000000000009603 0.2000000000002244 0.1999999999986913 0.1999999999953977 0.2000000000047263 0.2000000000009603 0.2000000000002244 0.1999999999986913 0.1999999999953977 0.1999999926924308 0.1999999018081232 0.2000000561020917 0.200000109742597 0.1999999396547575 0.1999999926924308 0.1999999018081232 0.2000000561020917 0.200000109742597 0.1999999396547575 0.1999999926924308 0.1999999018081232 0.2000000561020917 0.200000109742597 0.1999999396547575 0.0008271453597151561 0.997863636696932 0.0007945414110870565 0.0004596819522832575 5.4994579982516e-005 0.0001838100799367014 0.9995252525993183 0.0001765647580193459 0.000102151544951835 1.222101777389245e-005 2.6468651510885e-005 0.9999316363743018 2.542532515478582e-005 1.470982247306425e-005 1.759826559440513e-006 0.4944500650197813 0.5018310449920356 0.003697054532983671 1.59497696876608e-005 5.885685512002508e-006 8.693728779000973e-005 0.7142356234503341 0.2856769274933946 3.738227270545499e-007 1.379457541875587e-007 0.9333586259223485 0.04990636913082645 0.01663674539842651 7.177396359447357e-005 2.648558480401128e-005 0.2496770356180772 0.0006662604797940146 0.7496364621447703 1.426849676696395e-005 5.97326059154324e-006 0.0107406963982465 0.9374873066602296 0.05113944202407054 0.0004458905239676235 0.0001866643934857262 0.0008055522298684875 0.3328115479995172 0.6663354581518054 3.344178929757176e-005 1.399982951142946e-005 0.4467523013660442 0.4563951893886239 0.02757804571751384 0.03510461215201076 0.03416985137580731 0.4467523013660442 0.4563951893886239 0.02757804571751384 0.03510461215201076 0.03416985137580731 0.4990139315067787 0.4991925035071968 0.0005107045503243303 0.0006500854102224215 0.0006327750254779132 0.3275983515656481 0.3452264168333042 0.3227197563901663 0.003677439580112376 0.0007780356307690658 0.3332974896972853 0.3334076651052083 0.3332669984774386 2.298399737570236e-005 4.862722692306663e-006 0.3275983515656481 0.3452264168333042 0.3227197563901663 0.003677439580112376 0.0007780356307690658 0.1682059213892555 0.8269957798720832 0.003339486052148994 0.001197569688907987 0.0002612429976045321 0.1999579443404619 0.8000357087035345 4.417309592789674e-006 1.584086890089929e-006 3.455595206409154e-007 0.01401716011577129 0.9855829816560069 0.0002782905043457495 9.979747407566553e-005 2.177024980037768e-005 0.324999999273714 0.3250000006346339 0.01250000027446915 0.3249999994935164 0.01250000032366655 0.3332812499954607 0.3332812500039665 7.812500171543217e-005 0.3332812499968345 7.812500202291598e-005 0.324999999273714 0.3250000006346339 0.01250000027446915 0.3249999994935164 0.01250000032366655 0.05002378198073795 0.04999636974905963 0.7999393034786721 0.05003082090682795 0.05000972388470239 0.004168648498394829 0.004166364145754969 0.9833282752898893 0.004169235075568996 0.004167476990391866 0.05002378198073795 0.04999636974905963 0.7999393034786721 0.05003082090682795 0.05000972388470239 0.3332639064257928 0.6665809399071823 4.232875068439312e-005 5.563800015318909e-005 5.718691618713116e-005 0.02685208567723867 0.9710791987624317 0.0005643833424585746 0.000741840002042521 0.0007624922158284153 0.4967078708912383 0.5028324145397998 0.00012541852054635 0.0001648533337872269 0.0001694427146285368 0.4980480543054778 0.5017890939371707 8.835205948484057e-005 6.310631863957142e-005 1.139337922706034e-005 0.4980480543054778 0.5017890939371707 8.835205948484057e-005 6.310631863957142e-005 1.139337922706034e-005 0.03288291104131685 0.9663842560506014 0.0003975842676817825 0.0002839784338780714 5.12702065217715e-005 0.01718423822181959 0.9649668263633091 0.0006714417786949189 0.01641918390638578 0.0007583097297904715 0.00128881786663647 0.6661225119772483 5.035813340211894e-005 0.332481438792979 5.687322973428538e-005 0.9338509048884862 0.04830015969664257 0.0006714417786949189 0.01641918390638578 0.0007583097297904715 0.229396948912524 0.2354462355628219 0.2114041385054759 0.1769924873056317 0.1467601897135464 0.229396948912524 0.2354462355628219 0.2114041385054759 0.1769924873056317 0.1467601897135464 0.229396948912524 0.2354462355628219 0.2114041385054759 0.1769924873056317 0.1467601897135464 0.1000014362957673 0.5000000040349661 0.2999902400861724 0.10000831452453 5.058564075128577e-009 0.1249962881366249 0.5000000088403949 0.125026627524876 0.2499770644150608 1.108304326583726e-008 0.1114702579977663 0.5000322232395891 0.2220573281730116 0.166399792896929 4.039769270397681e-005 0.333258619718853 0.3333712112783246 0.1667131234909024 0.1666569809257449 6.458617506872843e-008 0.2000407754686063 0.3999805580342082 0.2000402188221139 0.1999383304631243 1.172119473469515e-007 0.00427456026419155 0.4978759606270632 0.4950075079540388 0.002840330187443765 1.640967262857322e-006 0.02755102016958294 0.957823128737688 0.01394557816760559 0.0003401365010603712 0.0003401364240630323 0.399908217251369 0.4001241766466299 0.1999568081190625 5.39899208032335e-006 5.398990858143369e-006 0.3306122420349953 0.4938775448522567 0.1673469380112671 0.004081638012724455 0.004081637088756388 0.04995277357848935 0.7998136153363076 0.05017443624556311 0.04994491462747627 0.05011426021216381 0.004162731131540779 0.9833178012780257 0.004181203020463592 0.004162076218956355 0.00417618835101365 0.04995277357848935 0.7998136153363076 0.05017443624556311 0.04994491462747627 0.05011426021216381 0.001441803282204787 0.970678596691336 0.02683813949572835 0.0005980193895056619 0.0004434411412250221 0.0003204007293788414 0.502743391857334 0.4967047717397916 0.0001328931976679248 9.854247582778266e-005 0.01730163938645744 0.6481431602960341 0.3220576739487402 0.007176232674067941 0.005321293694700264 0.005054267366387307 0.9900417449763805 0.003411896211868361 0.001231764248934391 0.0002603271964292861 0.06065120839664769 0.8805009397165678 0.04094275454242034 0.0147811709872127 0.003123926357151434 0.06065120839664769 0.8805009397165678 0.04094275454242034 0.0147811709872127 0.003123926357151434 0.1978916558029625 0.1981272999450518 0.202305298010867 0.2012185433749869 0.2004572028661318 0.1978916558029625 0.1981272999450518 0.202305298010867 0.2012185433749869 0.2004572028661318 0.1978916558029625 0.1981272999450518 0.202305298010867 0.2012185433749869 0.2004572028661318 0.204200824533894 0.2031467958043884 0.1914879611806522 0.1973447217870836 0.2038196966939819 0.204200824533894 0.2031467958043884 0.1914879611806522 0.1973447217870836 0.2038196966939819 0.204200824533894 0.2031467958043884 0.1914879611806522 0.1973447217870836 0.2038196966939819 0.06047909749755667 0.130970100966744 0.7908251996802205 0.01464065271646518 0.003084949139013714 0.06047909749755667 0.130970100966744 0.7908251996802205 0.01464065271646518 0.003084949139013714 0.005039924791463054 0.010914175080562 0.9825687666400181 0.001220054393038765 0.0002570790949178094 2.580451459189754e-005 0.7499758769162004 0.2499907534531181 6.247526051984708e-006 1.317590037521991e-006 0.00967669297196158 0.7409538435751937 0.2465325449192797 0.002342822269494266 0.0004940962640707467 0.00967669297196158 0.7409538435751937 0.2465325449192797 0.002342822269494266 0.0004940962640707467 0.200000000359443 0.1999999994682155 0.2000000002490113 0.200000000139684 0.1999999997836464 0.200000000359443 0.1999999994682155 0.2000000002490113 0.200000000139684 0.1999999997836464 0.200000000359443 0.1999999994682155 0.2000000002490113 0.200000000139684 0.1999999997836464 0.0500002589783843 0.799993019397669 0.05000056522115362 0.05000326233089283 0.05000289407190026 0.004166688248198691 0.9833327516164723 0.004166713768429468 0.004166938527574402 0.004166907839325021 0.0500002589783843 0.799993019397669 0.05000056522115362 0.05000326233089283 0.05000289407190026 0.2412257805482776 0.5206330790495343 0.1660023773515975 0.05837812516356707 0.01376063788702363 0.2412257805482776 0.5206330790495343 0.1660023773515975 0.05837812516356707 0.01376063788702363 0.2412257805482776 0.5206330790495343 0.1660023773515975 0.05837812516356707 0.01376063788702363 0.0004977907247744149 0.500048809610021 0.0003362959656263396 0.4990917399015317 2.536379804667342e-005 0.0268806991378184 0.5026357189411303 0.01815998214382234 0.4509539546827087 0.001369645094520364 0.0268806991378184 0.5026357189411303 0.01815998214382234 0.4509539546827087 0.001369645094520364 0.1998664721967723 0.2001157671827351 0.1999885293281048 0.1998820443900332 0.2001471869023545 0.1998664721967723 0.2001157671827351 0.1999885293281048 0.1998820443900332 0.2001471869023545 0.1998664721967723 0.2001157671827351 0.1999885293281048 0.1998820443900332 0.2001471869023545 0.2002934892173904 0.2002838748871256 0.1998361862221335 0.1989874958382503 0.2005989538351004 0.2002934892173904 0.2002838748871256 0.1998361862221335 0.1989874958382503 0.2005989538351004 0.2002934892173904 0.2002838748871256 0.1998361862221335 0.1989874958382503 0.2005989538351004 0.0002799898861340276 0.5029211595153817 0.4967168142670845 6.776863297141541e-005 1.426769842835661e-005 0.001259954487603124 0.9714785511525511 0.02689233086854683 0.0003049588483713694 6.420464292760475e-005 0.01511945385123749 0.6577426138306128 0.322707970422562 0.003659506180456433 0.000770455715131257 0.241911166531846 0.5238826611962611 0.1633278653644794 0.05855153560098008 0.01232677130643355 0.241911166531846 0.5238826611962611 0.1633278653644794 0.05855153560098008 0.01232677130643355 0.241911166531846 0.5238826611962611 0.1633278653644794 0.05855153560098008 0.01232677130643355 0.004166666666756668 0.9833333333307295 0.004166666666960783 0.004166666667605217 0.004166666667947756 0.05000000000108001 0.7999999999687549 0.0500000000035294 0.05000000001126261 0.05000000001537307 0.05000000000108001 0.7999999999687549 0.0500000000035294 0.05000000001126261 0.05000000001537307 0.1999998717028216 0.2000000576677559 0.2000001316694646 0.1999999403907257 0.1999999985692322 0.1999998717028216 0.2000000576677559 0.2000001316694646 0.1999999403907257 0.1999999985692322 0.1999998717028216 0.2000000576677559 0.2000001316694646 0.1999999403907257 0.1999999985692322 0.4691936731907976 0.5003322007281862 0.01970948205490066 0.006587009041622087 0.004177634984493445 0.03909947276589979 0.9583610167273486 0.001642456837908388 0.0005489174201351738 0.000348136248707787 0.9557661394325663 0.04169435006068217 0.001642456837908388 0.0005489174201351738 0.000348136248707787 0.002256943831355989 0.9955449334924054 0.001524073825406669 0.0005563716257500792 0.0001176772250819431 0.02708332597627187 0.9465392019088639 0.01828888590488003 0.006676459509000952 0.001412126700983317 0.002256943831355989 0.9955449334924054 0.001524073825406669 0.0005563716257500792 0.0001176772250819431 0.7985008407581184 0.05047092874800101 0.05017804532036105 0.05037693763927496 0.05047324753424454 0.7985008407581184 0.05047092874800101 0.05017804532036105 0.05037693763927496 0.05047324753424454 0.9832084033965097 0.004205910729000084 0.004181503776696755 0.004198078136606246 0.004206103961187046 0.0511926174707311 0.7954585594917387 0.05133810872363282 0.05155919473129006 0.05045151958260739 0.0511926174707311 0.7954585594917387 0.05133810872363282 0.05155919473129006 0.05045151958260739 0.004266051455894259 0.982954879957645 0.004278175726969403 0.004296599560940839 0.004204293298550616 0.4968058906797603 0.5029087167860423 0.0001940570975493581 7.154863664805377e-005 1.97867999998839e-005 0.02729317472558832 0.9714225588705238 0.000873256938972111 0.0003219688649162419 8.904059999947754e-005 0.3275180967070599 0.6570707064462862 0.01047908326766533 0.003863626378994903 0.001068487199993731 0.9374592090894831 0.06172181948644018 0.00054541412742519 0.0002161000248357371 5.745727181600311e-005 0.001559440681711218 0.9983791364614831 4.090605955688924e-005 1.620750186268028e-005 4.309295386200232e-006 0.2495105090737949 0.7406618338372819 0.006544969529102278 0.002593200298028845 0.0006894872617920372 0.7999999154154591 0.05000001187621718 0.05000004002230266 0.05000002601668468 0.05000000666933625 0.9833333262846216 0.004166667656351432 0.004166670001858556 0.004166668834723724 0.004166667222444688 0.7999999154154591 0.05000001187621718 0.05000004002230266 0.05000002601668468 0.05000000666933625 0.1996840241226835 0.2003482924103035 0.1992286067220755 0.200033523049704 0.2007055536952335 0.1996840241226835 0.2003482924103035 0.1992286067220755 0.200033523049704 0.2007055536952335 0.1996840241226835 0.2003482924103035 0.1992286067220755 0.200033523049704 0.2007055536952335 0.2031823126425836 0.5942181889485331 0.004655909944125753 0.1970289688691708 0.0009146195955867041 0.01693185938688197 0.9661848490790443 0.0003879924953438127 0.01641908073909756 7.621829963222533e-005 0.2498751528337135 0.5002512485038627 1.241575985100201e-005 0.2498587439169844 2.43898558823121e-006 0.002288852780534562 0.9584871505904792 0.001546419196489833 0.03754442083014412 0.000133156602352331 0.002288852780534562 0.0418204839238125 0.001546419196489833 0.9542110874968107 0.000133156602352331 0.02746623336641474 0.50184580708575 0.018557030357878 0.4505330499617294 0.001597879228227973 0.0233422754885246 0.4654095492022038 0.4659232428898122 0.02224464179228796 0.02308029062717149 0.0004322643608986037 0.4993594360963371 0.4993689489424039 0.0004119378109682955 0.0004274127893920645 0.0233422754885246 0.4654095492022038 0.4659232428898122 0.02224464179228796 0.02308029062717149 0.05326424240405998 0.790626788959736 0.05217135263531813 0.05085148501888992 0.05308613098199596 0.05326424240405998 0.790626788959736 0.05217135263531813 0.05085148501888992 0.05308613098199596 0.004438686867004998 0.9825522324133112 0.004347612719609845 0.00423762375157416 0.004423844248499663 0.01579436637916578 0.3446712396130653 0.6335414329742202 0.00468117536300156 0.001311785670547158 9.871478986978613e-005 0.3334041952475817 0.666459633956089 2.925734601875976e-005 8.198660440919742e-006 0.01579436637916578 0.3446712396130653 0.6335414329742202 0.00468117536300156 0.001311785670547158 1.342990850544473e-005 0.5004349058371593 0.4995460903238222 3.661197147163565e-006 1.912733365675619e-006 9.326325351003286e-005 0.9937609201654589 0.00610710873024743 2.542498018863587e-005 1.328287059496958e-005 0.005036215689541775 0.6630896889347824 0.3297838714333612 0.001372948930186337 0.0007172750121283573 0.0001481481996601686 0.00903703511077311 0.9905185173556748 0.0001481491213562981 0.0001481502125357027 0.0001481481996601686 0.9905185165922546 0.009037035874193243 0.0001481491213562981 0.0001481502125357028 0.008000002781649104 0.487999895981748 0.4879999372064351 0.008000052553240098 0.008000111476927948 0.0002805628917499852 0.9754694266084578 0.02367639621732386 0.0002875803036952616 0.0002860339787730469 4.453379234126748e-006 0.6001397263482824 0.3998467152838728 4.564766725321612e-006 4.540221885286457e-006 0.0002805628917499852 0.9754694266084578 0.02367639621732386 0.0002875803036952616 0.0002860339787730469 0.2412505917775044 0.5239025577579233 0.1628573770829958 0.05865596156460057 0.01333351181697583 0.2412505917775044 0.5239025577579233 0.1628573770829958 0.05865596156460057 0.01333351181697583 0.2412505917775044 0.5239025577579233 0.1628573770829958 0.05865596156460057 0.01333351181697583 0.005040842706092813 0.9900758023161631 0.003403033310425068 0.001221717669968616 0.0002586039973503094 0.06049011247311376 0.8809096277939583 0.04083639972510082 0.01466061203962339 0.003103247968203713 0.06049011247311376 0.8809096277939583 0.04083639972510082 0.01466061203962339 0.003103247968203713 0.1999690251821738 0.2001822924878558 0.200008552939982 0.2000073068966958 0.1998328224932928 0.1999690251821738 0.2001822924878558 0.200008552939982 0.2000073068966958 0.1998328224932928 0.1999690251821738 0.2001822924878558 0.200008552939982 0.2000073068966958 0.1998328224932928 0.1997997999586008 0.2001081204135302 0.200226046495928 0.1995357928097829 0.2003302403221582 0.1997997999586008 0.2001081204135302 0.200226046495928 0.1995357928097829 0.2003302403221582 0.1997997999586008 0.2001081204135302 0.200226046495928 0.1995357928097829 0.2003302403221582 4.199282979828801e-005 0.666236596804901 0.3337089435351056 1.028294476866473e-005 2.183885426401309e-006 0.0001244231994023349 0.5018121386811883 0.498026499363276 3.046798449974737e-005 6.47077163378166e-006 0.006718852767726081 0.5978554887841671 0.3934309656168964 0.001645271162986357 0.0003494216682242095 0.06050520133654761 0.1309666898343502 0.7907903865732968 0.01463506725911187 0.00310265499669343 0.005042100111378968 0.01091389081952918 0.9825658655477747 0.001219588938259322 0.0002585545830577858 0.06050520133654761 0.1309666898343502 0.7907903865732968 0.01463506725911187 0.00310265499669343 0.000411522633476547 0.9983539093983314 0.0004115226544303404 0.0004115226570669246 0.0004115226566950022 0.02222222220773353 0.9111111075098841 0.02222222333923838 0.02222222348161392 0.02222222346153012 0.02222222220773353 0.9111111075098841 0.02222222333923838 0.02222222348161392 0.02222222346153012 0.001045329490762979 0.995826125484732 0.00104123567920248 0.00104486417199467 0.001042445173307835 0.0002322954423917731 0.9990724723299407 0.00023138570648944 0.0002321920382210378 0.0002316544829572966 0.01254395388915575 0.9499135058167845 0.01249482815042976 0.01253837006393604 0.01250934207969402 0.2418951816413318 0.523787717477355 0.163329554617427 0.05860171557602014 0.01238583068786621 0.2418951816413318 0.523787717477355 0.163329554617427 0.05860171557602014 0.01238583068786621 0.2418951816413318 0.523787717477355 0.163329554617427 0.05860171557602014 0.01238583068786621 0.2419121887546379 0.5238795826845439 0.1633278055384883 0.05855265849119834 0.01232776453113152 0.2419121887546379 0.5238795826845439 0.1633278055384883 0.05855265849119834 0.01232776453113152 0.2419121887546379 0.5238795826845439 0.1633278055384883 0.05855265849119834 0.01232776453113152 0.1999896568963121 0.2000004427114903 0.2000112189975979 0.2000048891113918 0.1999937922832078 0.1999896568963121 0.2000004427114903 0.2000112189975979 0.2000048891113918 0.1999937922832078 0.1999896568963121 0.2000004427114903 0.2000112189975979 0.2000048891113918 0.1999937922832078 0.1999889893680896 0.2000395035554088 0.1999903331725058 0.199973105238735 0.2000080686652607 0.1999889893680896 0.2000395035554088 0.1999903331725058 0.199973105238735 0.2000080686652607 0.1999889893680896 0.2000395035554088 0.1999903331725058 0.199973105238735 0.2000080686652607 0.06047861672051088 0.1309708538118681 0.04083210962726956 0.01463881054220479 0.7530796092981467 0.005039884726709239 0.01091423781765568 0.003402675802272463 0.001219900878517066 0.9794233007748456 0.06047861672051088 0.1309708538118681 0.04083210962726956 0.01463881054220479 0.7530796092981467 0.005039859709635901 0.9900806856771492 0.003402683277551445 0.001219870082886794 0.0002569012527765774 0.06047831651563082 0.8809682281257913 0.04083219933061735 0.01463844099464153 0.003082815033318928 0.06047831651563082 0.8809682281257913 0.04083219933061735 0.01463844099464153 0.003082815033318928 0.2000000000260966 0.1999999999829605 0.1999999999968185 0.1999999999674685 0.2000000000266557 0.2000000000260966 0.1999999999829605 0.1999999999968185 0.1999999999674685 0.2000000000266557 0.2000000000260966 0.1999999999829605 0.1999999999968185 0.1999999999674685 0.2000000000266557 0.1999992267935635 0.1999983507670489 0.2000019810953937 0.1999987592931444 0.2000016820508497 0.1999992267935635 0.1999983507670489 0.2000019810953937 0.1999987592931444 0.2000016820508497 0.1999992267935635 0.1999983507670489 0.2000019810953937 0.1999987592931444 0.2000016820508497 0.9332675863779629 0.03286866858133002 0.01678781666577402 0.01638628927199524 0.0006896391029378746 0.003689093269176934 0.4980448893143697 0.4944713666664684 0.003641397615998942 0.0001532531339861944 0.003689093269176935 0.4980448893143697 0.00373062592572756 0.4943821383567398 0.0001532531339861944 0.9334310562759792 0.06597916759767079 0.0003917433353247896 0.0001559417522469242 4.209103877840402e-005 0.01676438960931244 0.9826458342643375 0.0003917433353247896 0.0001559417522469242 4.209103877840401e-005 0.001257329220698433 0.9986984375698253 2.938075014935922e-005 1.169563141851931e-005 3.1568279083803e-006 0.4849405689612377 0.4832360947011498 0.007765924383836342 0.0116377622124902 0.01241964974128605 0.4997211216474303 0.4996895573092806 0.0001438134145154878 0.0002155141150461148 0.0002299935137275195 0.4997211216474303 0.4996895573092806 0.0001438134145154878 0.0002155141150461148 0.0002299935137275195 0.4649135480494609 0.4510162187241964 0.03433047895945931 0.02010038363967699 0.02963937062720638 0.9554094623374551 0.03758468489368303 0.002860873246621608 0.001675031969973083 0.002469947552267198 0.03874279567078841 0.9542513515603496 0.002860873246621609 0.001675031969973083 0.002469947552267198 0.3332976326762168 0.6666099486297693 6.386629577749901e-005 2.33159049595867e-005 5.2364932769051e-006 0.3276212281946814 0.6575917807630802 0.01021860732439984 0.003730544793533872 0.000837838924304816 0.3276212281946814 0.6575917807630802 0.01021860732439984 0.003730544793533872 0.000837838924304816 0.4960187751191135 0.007963787131764925 0.4959961508697064 1.719508337987875e-005 4.091796035407807e-006 0.2500933702838189 0.4998134520136407 0.2500901123919043 2.476092006702539e-006 5.892186290987242e-007 0.02375115470267719 0.9525037087596089 0.0236493455803452 7.737787520945435e-005 1.841308215933513e-005 0.5888888835167578 0.3944444419809551 0.0055555581883012 0.005555557323979468 0.00555555899000632 0.5002370370227114 0.4997185185119492 1.481482183546987e-005 1.481481953061192e-005 1.48148239733502e-005 0.965740740293063 0.03287037016507959 0.0004629631823584333 0.0004629631103316223 0.0004629632491671933 0.05008077970467401 0.7998212418265815 0.05004360401391684 0.05001416571044585 0.05004020874438164 0.004173398308722836 0.9833184368188819 0.004170300334493071 0.004167847142537155 0.004170017395365138 0.05008077970467401 0.7998212418265815 0.05004360401391684 0.05001416571044585 0.05004020874438164 0.0008948830451085858 0.9975366358676717 0.0007584704147315044 0.0005275165554357089 0.000282494117052424 1.420449277950136e-005 0.9999608989820266 1.20392129322461e-005 8.373278657709662e-006 4.484033604006729e-006 0.0008948830451085858 0.9975366358676717 0.0007584704147315044 0.0005275165554357089 0.000282494117052424 0.02082044528624823 0.04164128298753494 0.9371800555932681 0.0002521466808432074 0.0001060694521054106 0.02082044528624823 0.9583079496542016 0.02051338892660154 0.0002521466808432074 0.0001060694521054106 0.495367506359907 0.4999943591824151 0.004558530872578119 5.603259574293497e-005 2.35709893567579e-005 0.7830690186723632 0.06696414301383269 0.06142690804611878 0.04417288243797488 0.04436704782971035 0.7830690186723632 0.06696414301383269 0.06142690804611878 0.04417288243797488 0.04436704782971035 0.9819224182226968 0.005580345251152724 0.005118909003843232 0.003681073536497906 0.003697253985809195 0.04268064911302206 0.4410392411829598 0.03048938303951151 0.4501785136572317 0.03561221300727495 0.003556720759418505 0.03675327009857998 0.002540781919959292 0.9541815428047693 0.002967684417272912 0.003556720759418505 0.9534199367652466 0.002540781919959292 0.03751487613810264 0.002967684417272912 0.1666365848872283 0.6665451890864103 0.166681794703837 0.0001363488602607121 8.246226377094587e-008 0.1000031798729373 0.400012521841542 0.1999984250355201 0.2999858590829298 1.416707061028521e-008 0.1253944652771965 0.4999994265548667 0.187422333664346 0.1870706362776969 0.0001131382258937377 0.1998571010131472 0.4001921045136546 0.3998306550207356 0.0001199709876929284 1.684647697964871e-007 0.0001216512776974754 0.5999275542491043 0.2000952052852858 0.1998554207231427 1.684647697964871e-007 0.007664030494940952 0.9621025843602375 0.02266459963966993 0.007558172224654493 1.061328049717869e-005 0.2000000093110067 0.1999999940823126 0.2000000050804509 0.1999999733499975 0.2000000181762323 0.2000000093110067 0.1999999940823126 0.2000000050804509 0.1999999733499975 0.2000000181762323 0.2000000093110067 0.1999999940823126 0.2000000050804509 0.1999999733499975 0.2000000181762323 0.466525285390642 0.4663075229727389 0.0225907265816586 0.02216348477498994 0.02241298027997055 0.4993800978776045 0.4993760652402359 0.0004183467885492333 0.0004104349032405544 0.0004150551903698251 0.466525285390642 0.4663075229727389 0.0225907265816586 0.02216348477498994 0.02241298027997055 0.06147896178170926 0.130009552897752 0.7803156889214444 0.02083384139965973 0.007361954999434579 0.005123246815142438 0.010834129408146 0.9816929740767871 0.001736153449971644 0.0006134962499528817 0.06147896178170926 0.130009552897752 0.7803156889214444 0.02083384139965973 0.007361954999434579 0.06048528391380704 0.8806568702231743 0.04083550007226703 0.01476558733330932 0.003256758457442407 0.005040440326150585 0.9900547391852642 0.003402958339355585 0.00123046561110911 0.0002713965381202006 0.06048528391380704 0.8806568702231743 0.04083550007226703 0.01476558733330932 0.003256758457442407 0.1992392847987109 0.1994830598258303 0.2022780022429737 0.2002119967322048 0.1987876564002804 0.1992392847987109 0.1994830598258303 0.2022780022429737 0.2002119967322048 0.1987876564002804 0.1992392847987109 0.1994830598258303 0.2022780022429737 0.2002119967322048 0.1987876564002804 0.1996712826206385 0.2016408184211818 0.196922245484094 0.2021531468308533 0.1996125066432324 0.1996712826206385 0.2016408184211818 0.196922245484094 0.2021531468308533 0.1996125066432324 0.1996712826206385 0.2016408184211818 0.196922245484094 0.2021531468308533 0.1996125066432324 0.2496331196289914 0.4998539640675516 0.0002976899573874019 0.2502148936984167 3.326476527332413e-007 0.0001487035196716799 0.4000598366737195 0.1998831134047887 0.3999081813980241 1.650037959986316e-007 0.11241986087179 0.4452365253319094 0.1116337340202758 0.3305851369062501 0.0001247428697749655 0.0008063584736158621 0.02174606906236455 0.9772108523429663 0.0001953902422234574 4.132987882987058e-005 0.000179190771914636 0.4955732005323774 0.5041950042243629 4.342005382743497e-005 9.184417517749014e-006 0.0008063584736158621 0.02174606906236455 0.9772108523429663 0.0001953902422234574 4.132987882987058e-005 0.4666666665514199 0.4666666663932015 0.02222222235345345 0.02222222228634395 0.02222222241558119 0.4993827160472486 0.4993827160443186 0.0004115226361750639 0.0004115226349322954 0.0004115226373255776 0.4666666665514199 0.4666666663932015 0.02222222235345345 0.02222222228634395 0.02222222241558119 0.200001772833326 0.200002431609061 0.2000054574608893 0.1999943037948617 0.1999960343018621 0.200001772833326 0.200002431609061 0.2000054574608893 0.1999943037948617 0.1999960343018621 0.200001772833326 0.200002431609061 0.2000054574608893 0.1999943037948617 0.1999960343018621 0.2410857550757664 0.5233604773876981 0.1630383724862697 0.05891134796266219 0.01360404708760378 0.2410857550757664 0.5233604773876981 0.1630383724862697 0.05891134796266219 0.01360404708760378 0.2410857550757664 0.5233604773876981 0.1630383724862697 0.05891134796266219 0.01360404708760378 0.2419069935733172 0.5238574284809204 0.1633383042095347 0.05855815468874147 0.01233911904748636 0.2419069935733172 0.5238574284809204 0.1633383042095347 0.05855815468874147 0.01233911904748636 0.2419069935733172 0.5238574284809204 0.1633383042095347 0.05855815468874147 0.01233911904748636 0.200056398747589 0.199756657272225 0.1999324799239956 0.2001288096525405 0.20012565440365 0.200056398747589 0.199756657272225 0.1999324799239956 0.2001288096525405 0.20012565440365 0.200056398747589 0.199756657272225 0.1999324799239956 0.2001288096525405 0.20012565440365 0.2001808897160365 0.200096245418184 0.1993938967423358 0.2000503724601636 0.2002785956632802 0.2001808897160365 0.200096245418184 0.1993938967423358 0.2000503724601636 0.2002785956632802 0.2001808897160365 0.200096245418184 0.1993938967423358 0.2000503724601636 0.2002785956632802 0.002239929229362491 0.004850767892347496 0.001512296862608294 0.0005421526042532179 0.9908548534114284 0.002239929229362491 0.004850767892347496 0.001512296862608294 0.0005421526042532179 0.9908548534114284 0.02687915075234989 0.05820921470816995 0.01814756235129953 0.006505831251038614 0.890258240937142 0.005039823759870827 0.01091421824609146 0.9825693128420377 0.001219830022013281 0.0002568151299864654 0.06047788511844994 0.1309706189530976 0.7908317541044555 0.01463796026415937 0.003081781559837586 0.06047788511844994 0.1309706189530976 0.7908317541044555 0.01463796026415937 0.003081781559837586 0.1999999999954912 0.2000000000246036 0.1999999999913314 0.1999999999947373 0.1999999999938364 0.1999999999954912 0.2000000000246036 0.1999999999913314 0.1999999999947373 0.1999999999938364 0.1999999999954912 0.2000000000246036 0.1999999999913314 0.1999999999947373 0.1999999999938364 0.1999998937633568 0.1999998239411395 0.2000001961579947 0.200000009914613 0.2000000762228961 0.1999998937633568 0.1999998239411395 0.2000001961579947 0.200000009914613 0.2000000762228961 0.1999998937633568 0.1999998239411395 0.2000001961579947 0.200000009914613 0.2000000762228961 0.6399091323031252 0.03267443804954607 0.01036047866061305 0.003781916232514928 0.3132740347542008 0.6664994320768947 0.0002042152378096629 6.475299162883154e-005 2.36369764532183e-005 0.3332079627172138 0.6399091323031252 0.03267443804954607 0.01036047866061305 0.003781916232514928 0.3132740347542008 0.3276178267117249 0.3452411907994511 0.322700076681768 0.003669065085143882 0.0007718407219120287 0.4968077375316986 0.006393355385175021 0.4967166680866994 6.79456497248867e-005 1.429334670207461e-005 0.02730148555931041 0.9454367658999542 0.026891673056814 0.0003057554237619902 6.432006015933573e-005 0.004173813715323311 0.9833269660877831 0.00416780989381053 0.004166024476764833 0.004165385826318192 0.05008576458387973 0.7999235930533977 0.05001371872572636 0.04999229372117801 0.0499846299158183 0.05008576458387973 0.7999235930533977 0.05001371872572636 0.04999229372117801 0.0499846299158183 0.2002145942703529 0.2001786318520037 0.1998157299197586 0.1996422193417262 0.2001488246161586 0.2002145942703529 0.2001786318520037 0.1998157299197586 0.1996422193417262 0.2001488246161586 0.2002145942703529 0.2001786318520037 0.1998157299197586 0.1996422193417262 0.2001488246161586 0.06049431078439642 0.8809075833059363 0.04084693448591479 0.01465832580370332 0.003092845620049193 0.005041192565366368 0.9900756319421614 0.003403911207159565 0.00122152715030861 0.0002577371350040994 0.06049431078439642 0.8809075833059363 0.04084693448591479 0.01465832580370332 0.003092845620049193 0.02730063135837821 0.9714766288718911 0.000851632190637817 0.0003060131062255413 6.509447286720755e-005 0.9439672980250449 0.05480996220522456 0.000851632190637817 0.0003060131062255413 6.509447286720755e-005 0.02730063135837821 0.9714766288718911 0.000851632190637817 0.0003060131062255413 6.509447286720755e-005 0.1999999991332067 0.2000000009476646 0.1999999993346601 0.1999999991693104 0.2000000014151581 0.1999999991332067 0.2000000009476646 0.1999999993346601 0.1999999991693104 0.2000000014151581 0.1999999991332067 0.2000000009476646 0.1999999993346601 0.1999999991693104 0.2000000014151581 0.1999645447809059 0.2000020392599994 0.2000184135788909 0.1999941259756191 0.2000208764045847 0.1999645447809059 0.2000020392599994 0.2000184135788909 0.1999941259756191 0.2000208764045847 0.1999645447809059 0.2000020392599994 0.2000184135788909 0.1999941259756191 0.2000208764045847 0.2416580847555213 0.5216383050042117 0.164087290895017 0.05919925577600238 0.01341706356924773 0.2416580847555213 0.5216383050042117 0.164087290895017 0.05919925577600238 0.01341706356924773 0.2416580847555213 0.5216383050042117 0.164087290895017 0.05919925577600238 0.01341706356924773 0.327600079782212 0.3452223708598113 0.3226923008997807 0.00369050360350597 0.0007947448546901058 0.006066668144115039 0.4971337476085151 0.4967165240907367 6.834265932418466e-005 1.471749730907604e-005 0.943966673315184 0.02876853090498427 0.02689102507498172 0.0003075419669588308 6.622873789084214e-005 0.01268049377322603 0.6372025279377096 0.01254297164768295 0.3250312427342068 0.01254276390717471 7.925308608266267e-005 0.6664825157996108 7.839357279801846e-005 0.3332814452670888 7.839227441984193e-005 0.01268049377322603 0.6372025279377096 0.01254297164768295 0.3250312427342068 0.01254276390717471 0.2006815593081446 0.2001142837341309 0.1999115034740444 0.1997074994068911 0.199585154076789 0.2006815593081446 0.2001142837341309 0.1999115034740444 0.1997074994068911 0.199585154076789 0.2006815593081446 0.2001142837341309 0.1999115034740444 0.1997074994068911 0.199585154076789 0.2500933792509046 0.4998134386869631 0.24971515744646 0.0003774433610491888 5.812546229982008e-007 0.005278096649800808 0.498704435326133 0.002651556341157551 0.4933618751924712 4.036490437487504e-006 0.9404181015907701 0.03583662563426487 0.01193200353520898 0.01179510503278714 1.816420696869376e-005 0.6645776409135007 0.3340326383590088 0.0006977141586579132 0.0006911771423302376 8.294265022988781e-007 0.1667874799899126 0.4999600744441994 0.1666265555870155 0.1666257932527499 9.672612271707037e-008 0.3324225461601168 0.4452221374414111 0.1116342653852661 0.110588342772838 0.0001327082403678205 0.0222222233235087 0.4666666665389791 0.4666666614021608 0.02222222574479488 0.02222222299055652 0.0004115226541390499 0.4993827160470181 0.4993827159518918 0.0004115226989776829 0.0004115226479732689 0.0222222233235087 0.4666666665389791 0.4666666614021608 0.02222222574479488 0.02222222299055652 0.006018896478461967 0.9932862292910529 0.0002314346791358445 0.000231946036772704 0.0002314935145765369 0.9437517008197456 0.05312136514307159 0.001041456056111301 0.001043757165477168 0.001041720815594416 0.3250204098369464 0.6374563817168591 0.01249747267333561 0.01252508598572602 0.012500649787133 0.02689838428418102 0.05820017013200076 0.907003413321573 0.006507802043902845 0.001390230218342513 0.0004981182274848338 0.001077780928370385 0.9982778409874365 0.0001205148526648675 2.574500404337987e-005 0.02689838428418102 0.05820017013200076 0.907003413321573 0.006507802043902845 0.001390230218342513 0.06047827851281291 0.1309702793484065 0.7908307741725533 0.01463819779647333 0.003082470169753988 0.005039856542734409 0.01091418994570054 0.9825692311810459 0.001219849816372777 0.0002568725141461656 0.06047827851281291 0.1309702793484065 0.7908307741725533 0.01463819779647333 0.003082470169753988 0.1999937663586439 0.1999994541315051 0.200016754468306 0.1999809875845587 0.2000090374569864 0.1999937663586439 0.1999994541315051 0.200016754468306 0.1999809875845587 0.2000090374569864 0.1999937663586439 0.1999994541315051 0.200016754468306 0.1999809875845587 0.2000090374569864 0.1999620727320091 0.2000169269336643 0.2000053664336103 0.1999812843334345 0.2000343495672817 0.1999620727320091 0.2000169269336643 0.2000053664336103 0.1999812843334345 0.2000343495672817 0.1999620727320091 0.2000169269336643 0.2000053664336103 0.1999812843334345 0.2000343495672817 0.002239973336217096 0.9955912884144941 0.001512330819199844 0.000542177438408232 0.0001142299916806109 0.002239973336217096 0.9955912884144941 0.001512330819199844 0.000542177438408232 0.0001142299916806109 0.02687968003460514 0.9470954609739306 0.01814796983039813 0.006506129260898785 0.00137075990016733 0.002239942416350211 0.004850733497931199 0.9922529356607888 0.0005422005186597827 0.0001141879062699852 0.002239942416350211 0.004850733497931199 0.9922529356607888 0.0005422005186597827 0.0001141879062699852 0.02687930899620253 0.05820880197517439 0.907035227929466 0.006506406223917393 0.001370254875239822 0.001851851851874649 0.001851851855498277 0.9925925925883223 0.001851851852900715 0.001851851851403936 0.001851851851874649 0.001851851855498277 0.9925925925883223 0.001851851852900715 0.001851851851403936 0.02222222222249579 0.02222222226597933 0.9111111110598691 0.02222222223480858 0.02222222221684723 0.001851901608038445 0.9925923864944688 0.001851874863068443 0.001851930503907302 0.001851906530517054 0.02222281929646133 0.9111086379336251 0.02222249835682131 0.02222316604688762 0.02222287836620464 0.001851901608038445 0.9925923864944688 0.001851874863068443 0.001851930503907302 0.001851906530517054 0.2419092730470623 0.523876001212342 0.1633285041789609 0.05855472774515559 0.01233149381647927 0.2419092730470623 0.523876001212342 0.1633285041789609 0.05855472774515559 0.01233149381647927 0.2419092730470623 0.523876001212342 0.1633285041789609 0.05855472774515559 0.01233149381647927 0.8104777588560961 0.130970705604743 0.0408319673508314 0.01463788634067043 0.003081681847659205 0.8104777588560961 0.130970705604743 0.0408319673508314 0.01463788634067043 0.003081681847659205 0.9842064799046747 0.01091422546706192 0.003402663945902617 0.001219823861722536 0.0002568068206382671 0.1999990677008708 0.2000006724054179 0.1999997695725101 0.200000254225079 0.2000002360961222 0.1999990677008708 0.2000006724054179 0.1999997695725101 0.200000254225079 0.2000002360961222 0.1999990677008708 0.2000006724054179 0.1999997695725101 0.200000254225079 0.2000002360961222 0.1999988768728517 0.1999975132074714 0.2000007897978476 0.2000015877403046 0.2000012323815246 0.1999988768728517 0.1999975132074714 0.2000007897978476 0.2000015877403046 0.2000012323815246 0.1999988768728517 0.1999975132074714 0.2000007897978476 0.2000015877403046 0.2000012323815246 0.2419112198514571 0.5238827931591929 0.1633278316930221 0.05855152430398548 0.01232663099234234 0.2419112198514571 0.5238827931591929 0.1633278316930221 0.05855152430398548 0.01232663099234234 0.2419112198514571 0.5238827931591929 0.1633278316930221 0.05855152430398548 0.01232663099234234 0.2419112551360318 0.5238827488006422 0.1633277836817511 0.05855151235719727 0.01232670002437773 0.2419112551360318 0.5238827488006422 0.1633277836817511 0.05855151235719727 0.01232670002437773 0.2419112551360318 0.5238827488006422 0.1633277836817511 0.05855151235719727 0.01232670002437773 0.2000000000001954 0.2000000000005951 0.1999999999994485 0.1999999999998751 0.1999999999998859 0.2000000000001954 0.2000000000005951 0.1999999999994485 0.1999999999998751 0.1999999999998859 0.2000000000001954 0.2000000000005951 0.1999999999994485 0.1999999999998751 0.1999999999998859 0.04999999576866558 0.05000002565699507 0.05000002621387977 0.7999999237152247 0.05000002864523492 0.004166666314055465 0.004166668804749588 0.004166668851156647 0.9833333269762687 0.004166669053769577 0.04999999576866558 0.05000002565699507 0.05000002621387977 0.7999999237152247 0.05000002864523492 0.06047263243942769 0.880902010116329 0.04086984464798443 0.01466848873241514 0.003087024063843907 0.005039386036618974 0.9900751675096942 0.003405820387332035 0.001222374061034595 0.0002572520053203256 0.06047263243942769 0.880902010116329 0.04086984464798443 0.01466848873241514 0.003087024063843907 0.02730150588972279 0.02876973746214128 0.0008515389593091894 0.9430123804639315 6.483722489504671e-005 0.3276180706766735 0.3452368495456954 0.01021846751171028 0.3161485655671803 0.0007780466987405606 0.4968077420495681 0.4971340157323278 0.0001892308798464866 0.005854603066058895 1.440827219889927e-005 0.3944438425902139 0.3944436046336901 0.1999997871584613 0.005556279305921643 0.005556486311712981 0.007304515603522478 0.4980452519376609 0.4944444405029345 0.0001028940612207711 0.0001028978946613515 0.6649652740161888 0.3337152725289605 0.001249998669740384 3.472674566201027e-005 3.472803944820613e-005 0.02223752061171365 0.9110588216357409 0.02223813745392009 0.02224270373477353 0.02222281656385167 0.02223752061171365 0.9110588216357409 0.02223813745392009 0.02224270373477353 0.02222281656385167 0.0004118059372539565 0.9983529411414027 0.0004118173602577794 0.0004119019210143247 0.0004115336400713272 0.2417659921252982 0.5232041536149945 0.1634921837990462 0.05865384933712787 0.01288382112353312 0.2417659921252982 0.5232041536149945 0.1634921837990462 0.05865384933712787 0.01288382112353312 0.2417659921252982 0.5232041536149945 0.1634921837990462 0.05865384933712787 0.01288382112353312 0.241948267755514 0.523472597120499 0.1635534547440949 0.05846658003317249 0.01255910034671971 0.241948267755514 0.523472597120499 0.1635534547440949 0.05846658003317249 0.01255910034671971 0.241948267755514 0.523472597120499 0.1635534547440949 0.05846658003317249 0.01255910034671971 0.0222222330977519 0.9111110878176139 0.02222223107219172 0.02222222740695306 0.02222222060548961 0.001851852758145992 0.9925925906514679 0.00185185258934931 0.001851852283912755 0.001851851717124134 0.001851852758145992 0.9925925906514679 0.00185185258934931 0.001851852283912755 0.001851851717124134 0.1997402578980342 0.1997913616131936 0.1999137877103288 0.200219801667806 0.2003347911106374 0.1997402578980342 0.1997913616131936 0.1999137877103288 0.200219801667806 0.2003347911106374 0.1997402578980342 0.1997913616131936 0.1999137877103288 0.200219801667806 0.2003347911106374 0.0272984698847542 0.02876749136359886 0.0008540091873341735 0.9430129840337818 6.704553053098386e-005 0.02729846988475419 0.9454341580302653 0.0008540091873341733 0.02634631736711513 6.704553053098384e-005 0.9439651365514207 0.02876749136359885 0.0008540091873341733 0.02634631736711513 6.704553053098384e-005 0.001261275536337425 0.9454350346678507 0.0008529399760622594 0.05238417474166496 6.657507808455708e-005 0.0002802834525194277 0.006392970666929804 0.0001895422169027244 0.9931224092018516 1.479446179656824e-005 0.0151353064360491 0.3452204160142095 0.01023527971274711 0.6286100968999796 0.0007989009370146852 0.02222347305660834 0.4666625662125481 0.4666658106947992 0.02222673233253736 0.02222141770350713 0.001851956088050695 0.9555552138510457 0.03888881755789992 0.001852227694378113 0.001851784808625594 0.001851956088050695 0.03888854718437901 0.9555554842245666 0.001852227694378114 0.001851784808625594 0.487967438449865 0.4879749299443936 0.008009022696579075 0.008036592179195287 0.008012016729967091 0.9573306198708221 0.04066457749536614 0.0006674185580482563 0.0006697160149329407 0.0006676680608305909 0.3342997964903117 0.6655498433121525 5.005639185361924e-005 5.022870111997057e-005 5.007510456229434e-005 3.097964759181838e-005 0.6666463817330353 0.3322919054799076 7.993113484039516e-006 0.00102274002598155 9.17915484202026e-005 0.5030263162460299 0.003087127347874133 2.368329921196893e-005 0.4937710815584639 0.0004130619678909116 0.9719517564404675 0.01389207306543359 0.0001065748464538602 0.01363653367975399 0.1999265078042212 0.6001467547432519 0.1999249363656742 1.367326002372463e-006 4.337608504748117e-007 0.0120366583326016 0.9759122154915312 0.01193765770413758 8.614153814946516e-005 2.732693357991313e-005 0.0120366583326016 0.9759122154915312 0.01193765770413758 8.614153814946516e-005 2.732693357991313e-005 0.001250000051123659 0.9986458330937913 3.472226588597751e-005 3.472234009652125e-005 3.472224910262607e-005 0.4944444445959219 0.5052469128704925 0.0001028807878103037 0.0001028810076933963 0.000102880738081855 0.2000000081797853 0.7833332950065947 0.005555562541756401 0.0055555744154434 0.00555555985642017 0.05058056160613848 0.04988019141266747 0.7988657558228605 0.05026141479764058 0.05041207636069304 0.004215046800511539 0.004156682617722288 0.9832388129852383 0.004188451233136715 0.004201006363391087 0.05058056160613848 0.04988019141266747 0.7988657558228605 0.05026141479764058 0.05041207636069304 0.001259973657261495 0.02877019128554201 0.9696005550222907 0.0003049837894505543 6.429624545513588e-005 0.00027999414605811 0.4971341165819723 0.5025038270419906 6.777417543345654e-005 1.428805454558576e-005 0.01511968388713794 0.3452422954265043 0.6352066602674896 0.003659805473406653 0.0007715549454616309 0.005039868322685777 0.9900807090824457 0.003402706731027206 0.001219869483790021 0.0002568463800512634 0.06047841987222931 0.8809685089893488 0.04083248077232646 0.01463843380548025 0.00308215656061516 0.06047841987222931 0.8809685089893488 0.04083248077232646 0.01463843380548025 0.00308215656061516 0.2000000372808015 0.2000001360563103 0.200000068214512 0.1999997226159127 0.2000000358324635 0.2000000372808015 0.2000001360563103 0.200000068214512 0.1999997226159127 0.2000000358324635 0.2000000372808015 0.2000001360563103 0.200000068214512 0.1999997226159127 0.2000000358324635 0.1999994494502764 0.1999992919503945 0.2000031762981891 0.1999999329785836 0.1999981493225564 0.1999994494502764 0.1999992919503945 0.2000031762981891 0.1999999329785836 0.1999981493225564 0.1999994494502764 0.1999992919503945 0.2000031762981891 0.1999999329785836 0.1999981493225564 9.152256464385296e-005 0.003221411788862844 0.4998726311515356 2.224795557046657e-005 0.4967921865393872 1.317924930871483e-005 0.2497972166309296 0.4999816588858211 3.203705602147186e-006 0.2502047415283384 0.004942218490768061 0.1739562365985936 0.4931220821829221 0.001201389600805195 0.3267780731269109 0.0268777395769469 0.9470778238456943 0.01815582953092364 0.006511720340541955 0.00137688670589327 0.0004977359180916092 0.9990199597008461 0.0003362190653874748 0.0001205874137137399 2.549790196098647e-005 0.0268777395769469 0.9470778238456943 0.01815582953092364 0.006511720340541955 0.00137688670589327 0.1999999991250966 0.1999999993582396 0.2000000010348854 0.1999999994020617 0.2000000010797169 0.1999999991250966 0.1999999993582396 0.2000000010348854 0.1999999994020617 0.2000000010797169 0.1999999991250966 0.1999999993582396 0.2000000010348854 0.1999999994020617 0.2000000010797169 0.1999906762744484 0.2000809803806686 0.199967597883773 0.1999829903548589 0.1999777551062511 0.1999906762744484 0.2000809803806686 0.199967597883773 0.1999829903548589 0.1999777551062511 0.1999906762744484 0.2000809803806686 0.199967597883773 0.1999829903548589 0.1999777551062511 0.06047782038461341 0.8809705430504069 0.0408320118085602 0.01463791108750206 0.003081713668917545 0.06047782038461341 0.8809705430504069 0.0408320118085602 0.01463791108750206 0.003081713668917545 0.005039818365384451 0.9900808785875338 0.00340266765071335 0.001219825923958505 0.0002568094724097954 0.2419112231686549 0.5238827644414035 0.163327819078774 0.05855150939520379 0.01232668391596387 0.2419112231686549 0.5238827644414035 0.163327819078774 0.05855150939520379 0.01232668391596387 0.2419112231686549 0.5238827644414035 0.163327819078774 0.05855150939520379 0.01232668391596387 0.1999999987293629 0.2000000114059166 0.2000000054789545 0.1999999824632635 0.2000000019225025 0.1999999987293629 0.2000000114059166 0.2000000054789545 0.1999999824632635 0.2000000019225025 0.1999999987293629 0.2000000114059166 0.2000000054789545 0.1999999824632635 0.2000000019225025 0.200000056989507 0.1999999145606161 0.2000000394561516 0.1999999428642652 0.2000000461294601 0.200000056989507 0.1999999145606161 0.2000000394561516 0.1999999428642652 0.2000000461294601 0.200000056989507 0.1999999145606161 0.2000000394561516 0.1999999428642652 0.2000000461294601 0.005039837101219554 0.01091422395860507 0.003402681101989375 0.9803864419294974 0.0002568159086885594 0.06047804521463464 0.1309706875032609 0.04083217322387249 0.7646373031539693 0.003081790904262713 0.06047804521463464 0.1309706875032609 0.04083217322387249 0.7646373031539693 0.003081790904262713 0.0004977620392666854 0.00107794778212188 0.4993072530792404 0.4990916687837084 2.53683156625875e-005 0.02687915012040101 0.05820918023458152 0.4625916662789835 0.4509501143202543 0.001369889045779725 0.02687915012040101 0.05820918023458152 0.4625916662789835 0.4509501143202543 0.001369889045779725 0.0041666666664705 0.004166666666965727 0.9833333333322003 0.00416666666759328 0.004166666666770198 0.049999999997646 0.05000000000358873 0.7999999999864035 0.05000000001111937 0.05000000000124237 0.049999999997646 0.05000000000358873 0.7999999999864035 0.05000000001111937 0.05000000000124237 0.1999994863660992 0.2000004411573278 0.1999998991002777 0.2000005569985739 0.1999996163777215 0.1999994863660992 0.2000004411573278 0.1999998991002777 0.2000005569985739 0.1999996163777215 0.1999994863660992 0.2000004411573278 0.1999998991002777 0.2000005569985739 0.1999996163777215 0.1014267371303447 0.6604576891015207 0.1079620430728561 0.09670463700096793 0.03344889369431052 0.008452228094195394 0.9717048074251267 0.008996836922738005 0.00805871975008066 0.00278740780785921 0.1014267371303447 0.6604576891015207 0.1079620430728561 0.09670463700096793 0.03344889369431052 0.2680070782968049 0.3840617586364886 0.216389276636026 0.0903562435656188 0.04118564286506176 0.2680070782968049 0.3840617586364886 0.216389276636026 0.0903562435656188 0.04118564286506176 0.2680070782968049 0.3840617586364886 0.216389276636026 0.0903562435656188 0.04118564286506176 0.01122871178572582 0.9695347734756863 0.007888592726448632 0.009690704611479277 0.001657217400660053 0.1347445414287098 0.6344172817082346 0.09466311271738356 0.1162884553377513 0.01988660880792064 0.1347445414287098 0.6344172817082346 0.09466311271738356 0.1162884553377513 0.01988660880792064 0.05720458782169772 0.1770611831650573 0.2820248682813686 0.1294639184981002 0.3542454422337761 0.05720458782169772 0.1770611831650573 0.2820248682813686 0.1294639184981002 0.3542454422337761 0.05720458782169772 0.1770611831650573 0.2820248682813686 0.1294639184981002 0.3542454422337761 0.2419003583311236 0.5238660755271672 0.1633324661149261 0.05856617699605372 0.01233492303072931 0.2419003583311236 0.5238660755271672 0.1633324661149261 0.05856617699605372 0.01233492303072931 0.2419003583311236 0.5238660755271672 0.1633324661149261 0.05856617699605372 0.01233492303072931 0.2419006091747727 0.5238581598489426 0.1633376915913525 0.05855881886544251 0.01234472051948966 0.2419006091747727 0.5238581598489426 0.1633376915913525 0.05855881886544251 0.01234472051948966 0.2419006091747727 0.5238581598489426 0.1633376915913525 0.05855881886544251 0.01234472051948966 0.1999999498935613 0.1999999468332326 0.199999972138123 0.1999999673019442 0.200000163833139 0.1999999498935613 0.1999999468332326 0.199999972138123 0.1999999673019442 0.200000163833139 0.1999999498935613 0.1999999468332326 0.199999972138123 0.1999999673019442 0.200000163833139 0.1999973087805176 0.2000086156364293 0.199992239735731 0.1999931051917573 0.2000087306555647 0.1999973087805176 0.2000086156364293 0.199992239735731 0.1999931051917573 0.2000087306555647 0.1999973087805176 0.2000086156364293 0.199992239735731 0.1999931051917573 0.2000087306555647 0.09711293236728451 0.5803410637361117 0.1047983931037834 0.03632279902595032 0.18142481176687 0.008092744363940375 0.9650284219780093 0.008733199425315285 0.003026899918829193 0.01511873431390583 0.09711293236728451 0.5803410637361117 0.1047983931037834 0.03632279902595032 0.18142481176687 0.1607938955170674 0.4420502740034605 0.2683250026264133 0.06466157055381859 0.0641692572992401 0.1607938955170674 0.4420502740034605 0.2683250026264133 0.06466157055381859 0.0641692572992401 0.1607938955170674 0.4420502740034605 0.2683250026264133 0.06466157055381859 0.0641692572992401 0.005101735748654497 0.9679491495855703 0.006968298264159052 0.008464159437631128 0.01151665696398492 0.06122082898385396 0.6153897950268449 0.08361957916990863 0.1015699132515735 0.138199883567819 0.06122082898385396 0.6153897950268449 0.08361957916990863 0.1015699132515735 0.138199883567819 0.08291207862125052 0.0854574976068284 0.4744044938158373 0.09560557432107496 0.2616203556350089 0.08291207862125052 0.0854574976068284 0.4744044938158373 0.09560557432107496 0.2616203556350089 0.08291207862125052 0.0854574976068284 0.4744044938158373 0.09560557432107496 0.2616203556350089 0.2418540679558949 0.5237967316727918 0.1633281655776412 0.05856471863389805 0.01245631615977374 0.2418540679558949 0.5237967316727918 0.1633281655776412 0.05856471863389805 0.01245631615977374 0.2418540679558949 0.5237967316727918 0.1633281655776412 0.05856471863389805 0.01245631615977374 0.2419074932594814 0.5238681099849559 0.1633081825915394 0.05854927229751896 0.01236694186650428 0.2419074932594814 0.5238681099849559 0.1633081825915394 0.05854927229751896 0.01236694186650428 0.2419074932594814 0.5238681099849559 0.1633081825915394 0.05854927229751896 0.01236694186650428 0.05000003547846091 0.7999997457384378 0.04999999495762272 0.05000022417978901 0.04999999964568946 0.004166669623205076 0.9833333121448697 0.00416666624646856 0.00416668534831575 0.004166666637140788 0.05000003547846091 0.7999997457384378 0.04999999495762272 0.05000022417978901 0.04999999964568946 0.2000030301774007 0.2000126994362062 0.1999954825284956 0.199981303742548 0.2000074841153495 0.2000030301774007 0.2000126994362062 0.1999954825284956 0.199981303742548 0.2000074841153495 0.2000030301774007 0.2000126994362062 0.1999954825284956 0.199981303742548 0.2000074841153495 0.1793699584679511 0.3131766986509508 0.1171189008792944 0.2139185751966401 0.1764158668051636 0.1793699584679511 0.3131766986509508 0.1171189008792944 0.2139185751966401 0.1764158668051636 0.1793699584679511 0.3131766986509508 0.1171189008792944 0.2139185751966401 0.1764158668051636 0.22429728784359 0.4798383378384724 0.1767258111117073 0.08573278586919168 0.03340577733703874 0.22429728784359 0.4798383378384724 0.1767258111117073 0.08573278586919168 0.03340577733703874 0.22429728784359 0.4798383378384724 0.1767258111117073 0.08573278586919168 0.03340577733703874 0.1303568566770012 0.2577395908121338 0.2925730176075345 0.1419472166016577 0.1773833183016729 0.1303568566770012 0.2577395908121338 0.2925730176075345 0.1419472166016577 0.1773833183016729 0.1303568566770012 0.2577395908121338 0.2925730176075345 0.1419472166016577 0.1773833183016729 0.2631676754763828 0.1922408398557837 0.1019310832174323 0.2070300650625623 0.2356303363878391 0.2631676754763828 0.1922408398557837 0.1019310832174323 0.2070300650625623 0.2356303363878391 0.2631676754763828 0.1922408398557837 0.1019310832174323 0.2070300650625623 0.2356303363878391 0.005039839272508023 0.9900808205778606 0.003402657702854577 0.001219860845598258 0.0002568216011785567 0.06047807127009629 0.880969846934327 0.04083189243425492 0.0146383301471791 0.003081859214142681 0.06047807127009629 0.880969846934327 0.04083189243425492 0.0146383301471791 0.003081859214142681 0.2419110781840158 0.5238820599958608 0.1633280573485723 0.05855144297905886 0.01232736149249232 0.2419110781840158 0.5238820599958608 0.1633280573485723 0.05855144297905886 0.01232736149249232 0.2419110781840158 0.5238820599958608 0.1633280573485723 0.05855144297905886 0.01232736149249232 0.04999999824488921 0.7999999925212747 0.04999999606510846 0.05000000805921143 0.05000000510951619 0.004166666520407434 0.9833333327101061 0.004166666338759038 0.004166667338267619 0.004166667092459682 0.04999999824488921 0.7999999925212747 0.04999999606510846 0.05000000805921143 0.05000000510951619 0.04999986146930088 0.7999992266417424 0.04999992253594543 0.05000015921638377 0.05000083013662743 0.04999986146930088 0.7999992266417424 0.04999992253594543 0.05000015921638377 0.05000083013662743 0.004166655122441741 0.9833332688868119 0.004166660211328786 0.004166679934698649 0.004166735844718953 0.1975699560109479 0.4642330806169641 0.1730371330654589 0.08246107180010578 0.08269875850652322 0.1975699560109479 0.4642330806169641 0.1730371330654589 0.08246107180010578 0.08269875850652322 0.1975699560109479 0.4642330806169641 0.1730371330654589 0.08246107180010578 0.08269875850652322 0.2410131670580745 0.520834519582154 0.1612216440500988 0.06178031814063369 0.01515035116903914 0.2410131670580745 0.520834519582154 0.1612216440500988 0.06178031814063369 0.01515035116903914 0.2410131670580745 0.520834519582154 0.1612216440500988 0.06178031814063369 0.01515035116903914 0.1776564757543664 0.1920969606654969 0.2227648693129147 0.1997424796283247 0.2077392146388974 0.1776564757543664 0.1920969606654969 0.2227648693129147 0.1997424796283247 0.2077392146388974 0.1776564757543664 0.1920969606654969 0.2227648693129147 0.1997424796283247 0.2077392146388974 0.1764023587586176 0.1885145082461555 0.2182769647683014 0.223449911922009 0.1933562563049166 0.1764023587586176 0.1885145082461555 0.2182769647683014 0.223449911922009 0.1933562563049166 0.1764023587586176 0.1885145082461555 0.2182769647683014 0.223449911922009 0.1933562563049166 0.2419112370166735 0.5238828244717206 0.1633278070962716 0.05855148514184782 0.01232664627348641 0.2419112370166735 0.5238828244717206 0.1633278070962716 0.05855148514184782 0.01232664627348641 0.2419112370166735 0.5238828244717206 0.1633278070962716 0.05855148514184782 0.01232664627348641 0.2419112376289734 0.5238828239553451 0.1633278181258448 0.05855147825673986 0.0123266420330968 0.2419112376289734 0.5238828239553451 0.1633278181258448 0.05855147825673986 0.0123266420330968 0.2419112376289734 0.5238828239553451 0.1633278181258448 0.05855147825673986 0.0123266420330968 0.2000000002395106 0.2000000000690613 0.1999999993058667 0.2000000004114768 0.1999999999740846 0.2000000002395106 0.2000000000690613 0.1999999993058667 0.2000000004114768 0.1999999999740846 0.2000000002395106 0.2000000000690613 0.1999999993058667 0.2000000004114768 0.1999999999740846 0.1999999989070342 0.2000000015783841 0.2000000055706378 0.1999999874805482 0.2000000064633958 0.1999999989070342 0.2000000015783841 0.2000000055706378 0.1999999874805482 0.2000000064633958 0.1999999989070342 0.2000000015783841 0.2000000055706378 0.1999999874805482 0.2000000064633958 0.3121527606870903 0.4340657202873748 0.156906411651666 0.04361928119283039 0.05325582618103854 0.3121527606870903 0.4340657202873748 0.156906411651666 0.04361928119283039 0.05325582618103854 0.3121527606870903 0.4340657202873748 0.156906411651666 0.04361928119283039 0.05325582618103854 0.2374424106918126 0.5124914619200832 0.1712634747420533 0.05946117935331074 0.01934147329274005 0.2374424106918126 0.5124914619200832 0.1712634747420533 0.05946117935331074 0.01934147329274005 0.2374424106918126 0.5124914619200832 0.1712634747420533 0.05946117935331074 0.01934147329274005 0.216045222834361 0.1588536081595947 0.2140538059455099 0.1986993504679351 0.2123480125925994 0.216045222834361 0.1588536081595947 0.2140538059455099 0.1986993504679351 0.2123480125925994 0.216045222834361 0.1588536081595947 0.2140538059455099 0.1986993504679351 0.2123480125925994 0.7115486622508549 0.06500674850271686 0.07919791238102995 0.08120309498849568 0.06304358187690268 0.9759623885209046 0.005417229041893071 0.006599826031752496 0.00676692458237464 0.005253631823075222 0.7115486622508549 0.06500674850271686 0.07919791238102995 0.08120309498849568 0.06304358187690268 0.9842050956558828 0.0109141049533906 0.003403072905950256 0.001220301030445542 0.000257425454330624 0.8104611478705956 0.1309692594406872 0.04083687487140307 0.01464361236534651 0.003089105451967489 0.8104611478705956 0.1309692594406872 0.04083687487140307 0.01464361236534651 0.003089105451967489 0.2419119941882639 0.5238625827675375 0.163329562648579 0.05856700596903192 0.01232885442658761 0.2419119941882639 0.5238625827675375 0.163329562648579 0.05856700596903192 0.01232885442658761 0.2419119941882639 0.5238625827675375 0.163329562648579 0.05856700596903192 0.01232885442658761 0.1999999834847225 0.1999999698904884 0.200000003259202 0.2000000430643653 0.2000000003012217 0.1999999834847225 0.1999999698904884 0.200000003259202 0.2000000430643653 0.2000000003012217 0.1999999834847225 0.1999999698904884 0.200000003259202 0.2000000430643653 0.2000000003012217 0.2000014754369026 0.1999970293998444 0.1999914234956628 0.2000151729467599 0.1999948987208302 0.2000014754369026 0.1999970293998444 0.1999914234956628 0.2000151729467599 0.1999948987208302 0.2000014754369026 0.1999970293998444 0.1999914234956628 0.2000151729467599 0.1999948987208302 0.1194081476565451 0.2741103523150119 0.2396414863146623 0.1970703086688845 0.1697697050448962 0.1194081476565451 0.2741103523150119 0.2396414863146623 0.1970703086688845 0.1697697050448962 0.1194081476565451 0.2741103523150119 0.2396414863146623 0.1970703086688845 0.1697697050448962 0.005117152477503766 0.9876851566283754 0.003524691766980179 0.00191293766811598 0.001760061459024543 0.06140582973004519 0.8522218795405064 0.04229630120376215 0.02295525201739176 0.02112073750829451 0.06140582973004519 0.8522218795405064 0.04229630120376215 0.02295525201739176 0.02112073750829451 0.1645131403541229 0.137707575229152 0.2641563021542707 0.2067843028721152 0.2268386793903394 0.1645131403541229 0.137707575229152 0.2641563021542707 0.2067843028721152 0.2268386793903394 0.1645131403541229 0.137707575229152 0.2641563021542707 0.2067843028721152 0.2268386793903394 0.1749619296356676 0.2081119623333345 0.2043543035197543 0.1694061931734497 0.243165611337794 0.1749619296356676 0.2081119623333345 0.2043543035197543 0.1694061931734497 0.243165611337794 0.1749619296356676 0.2081119623333345 0.2043543035197543 0.1694061931734497 0.243165611337794 0.005041723959372483 0.9900748831920579 0.003402637649645221 0.001222906191516359 0.0002578490074078794 0.06050068751246979 0.8808985983046969 0.04083165179574266 0.01467487429819631 0.003094188088894553 0.06050068751246979 0.8808985983046969 0.04083165179574266 0.01467487429819631 0.003094188088894553 0.06048374430828563 0.1309614239023754 0.7907993862364536 0.01466395889510403 0.003091486657781208 0.005040312025690469 0.01091345199186462 0.9825666155197044 0.001221996574592002 0.000257623888148434 0.06048374430828563 0.1309614239023754 0.7907993862364536 0.01466395889510403 0.003091486657781208 0.1999999402998388 0.1999999014916498 0.2000002451008411 0.2000000496971942 0.1999998634104763 0.1999999402998388 0.1999999014916498 0.2000002451008411 0.2000000496971942 0.1999998634104763 0.1999999402998388 0.1999999014916498 0.2000002451008411 0.2000000496971942 0.1999998634104763 0.05001165011336755 0.799953235338257 0.05000044513577998 0.05001884020632559 0.0500158292062699 0.05001165011336755 0.799953235338257 0.05000044513577998 0.05001884020632559 0.0500158292062699 0.004167637509447297 0.9833294362781881 0.004166703761314999 0.004168236683860467 0.004167985767189159 0.2001708481200278 0.4740772728000551 0.1752885212674859 0.09544403489337276 0.05501932291905853 0.2001708481200278 0.4740772728000551 0.1752885212674859 0.09544403489337276 0.05501932291905853 0.2001708481200278 0.4740772728000551 0.1752885212674859 0.09544403489337276 0.05501932291905853 0.2402345478823771 0.5211494408601506 0.1617100974876169 0.0630917140956908 0.0138141996741646 0.2402345478823771 0.5211494408601506 0.1617100974876169 0.0630917140956908 0.0138141996741646 0.2402345478823771 0.5211494408601506 0.1617100974876169 0.0630917140956908 0.0138141996741646 0.2097952299223269 0.1964682167390907 0.1909186198314906 0.2032621073955426 0.1995558261115492 0.2097952299223269 0.1964682167390907 0.1909186198314906 0.2032621073955426 0.1995558261115492 0.2097952299223269 0.1964682167390907 0.1909186198314906 0.2032621073955426 0.1995558261115492 0.1860326055210934 0.1788492792516446 0.2134935056853508 0.2057164503058362 0.215908159236075 0.1860326055210934 0.1788492792516446 0.2134935056853508 0.2057164503058362 0.215908159236075 0.1860326055210934 0.1788492792516446 0.2134935056853508 0.2057164503058362 0.215908159236075 0.2419106948481286 0.5238816717256592 0.163327935953319 0.05855217261410105 0.01232752485879217 0.2419106948481286 0.5238816717256592 0.163327935953319 0.05855217261410105 0.01232752485879217 0.2419106948481286 0.5238816717256592 0.163327935953319 0.05855217261410105 0.01232752485879217 0.241911267901355 0.5238822563442963 0.1633275750752445 0.05855195156763206 0.01232694911147225 0.241911267901355 0.5238822563442963 0.1633275750752445 0.05855195156763206 0.01232694911147225 0.241911267901355 0.5238822563442963 0.1633275750752445 0.05855195156763206 0.01232694911147225 0.1999999990003069 0.2000000008928689 0.2000000001578509 0.2000000010759288 0.1999999988730445 0.1999999990003069 0.2000000008928689 0.2000000001578509 0.2000000010759288 0.1999999988730445 0.1999999990003069 0.2000000008928689 0.2000000001578509 0.2000000010759288 0.1999999988730445 0.199999550694517 0.2000001857601822 0.1999999011617089 0.2000001537358168 0.200000208647775 0.199999550694517 0.2000001857601822 0.1999999011617089 0.2000001537358168 0.200000208647775 0.199999550694517 0.2000001857601822 0.1999999011617089 0.2000001537358168 0.200000208647775 0.2404439001258235 0.507524602227582 0.1652096052002593 0.06186409090489414 0.0249578015414411 0.2404439001258235 0.507524602227582 0.1652096052002593 0.06186409090489414 0.0249578015414411 0.2404439001258235 0.507524602227582 0.1652096052002593 0.06186409090489414 0.0249578015414411 0.2418494460172624 0.5236323516498822 0.1634027903822476 0.05871378240937009 0.01240162954123778 0.2418494460172624 0.5236323516498822 0.1634027903822476 0.05871378240937009 0.01240162954123778 0.2418494460172624 0.5236323516498822 0.1634027903822476 0.05871378240937009 0.01240162954123778 0.2004609156032006 0.1974591714198367 0.2014983681508353 0.1995023697932775 0.2010791750328501 0.2004609156032006 0.1974591714198367 0.2014983681508353 0.1995023697932775 0.2010791750328501 0.2004609156032006 0.1974591714198367 0.2014983681508353 0.1995023697932775 0.2010791750328501 0.2047440189458153 0.2021377134043132 0.194600379783847 0.2020130478955083 0.196504839970516 0.2047440189458153 0.2021377134043132 0.194600379783847 0.2020130478955083 0.196504839970516 0.2047440189458153 0.2021377134043132 0.194600379783847 0.2020130478955083 0.196504839970516 0.2419112371712328 0.5238828198229968 0.163327813811627 0.05855148827012369 0.01232664092401979 0.2419112371712328 0.5238828198229968 0.163327813811627 0.05855148827012369 0.01232664092401979 0.2419112371712328 0.5238828198229968 0.163327813811627 0.05855148827012369 0.01232664092401979 0.06047781384947885 0.880970695189954 0.04083195593308345 0.0146378717299663 0.003081663297517451 0.005039817820789902 0.9900808912658293 0.003402662994423621 0.001219822644163858 0.0002568052747931209 0.06047781384947885 0.880970695189954 0.04083195593308345 0.0146378717299663 0.003081663297517451 0.2000000000880255 0.2000000002023752 0.1999999997457246 0.2000000001780044 0.1999999997858703 0.2000000000880255 0.2000000002023752 0.1999999997457246 0.2000000001780044 0.1999999997858703 0.2000000000880255 0.2000000002023752 0.1999999997457246 0.2000000001780044 0.1999999997858703 0.1999999897725714 0.2000000014563867 0.2000000026442574 0.2000000008028248 0.2000000053239596 0.1999999897725714 0.2000000014563867 0.2000000026442574 0.2000000008028248 0.2000000053239596 0.1999999897725714 0.2000000014563867 0.2000000026442574 0.2000000008028248 0.2000000053239596 0.2656302875922585 0.3754004692237073 0.3077892889776889 0.02452981852642509 0.0266501356799203 0.2656302875922585 0.3754004692237073 0.3077892889776889 0.02452981852642509 0.0266501356799203 0.2656302875922585 0.3754004692237073 0.3077892889776889 0.02452981852642509 0.0266501356799203 0.2339241223650464 0.4722289677497715 0.2034580539916474 0.07810204106524968 0.01228681482828492 0.2339241223650464 0.4722289677497715 0.2034580539916474 0.07810204106524968 0.01228681482828492 0.2339241223650464 0.4722289677497715 0.2034580539916474 0.07810204106524968 0.01228681482828492 0.2605316903264238 0.252434799017667 0.1747765639948725 0.1839368876181613 0.1283200590428754 0.2605316903264238 0.252434799017667 0.1747765639948725 0.1839368876181613 0.1283200590428754 0.2605316903264238 0.252434799017667 0.1747765639948725 0.1839368876181613 0.1283200590428754 0.293901839801077 0.1932541136665113 0.1599693943417901 0.08742708150135058 0.2654475706892709 0.293901839801077 0.1932541136665113 0.1599693943417901 0.08742708150135058 0.2654475706892709 0.293901839801077 0.1932541136665113 0.1599693943417901 0.08742708150135058 0.2654475706892709 0.241911013230774 0.523881783517657 0.1633278602767695 0.05855192527851456 0.01232741769628473 0.241911013230774 0.523881783517657 0.1633278602767695 0.05855192527851456 